booster[0]:
0:[f0<3.0999999] yes=1,no=2,missing=1
	1:[f3<1.83000004] yes=3,no=4,missing=3
		3:leaf=1.75666821
		4:[f0<2.19000006] yes=7,no=8,missing=7
			7:leaf=0.346101284
			8:leaf=-0.226280734
	2:[f0<3.23500013] yes=5,no=6,missing=5
		5:leaf=0.227288678
		6:leaf=-0.315990835
booster[1]:
0:[f1<3.04500008] yes=1,no=2,missing=1
	1:[f3<2.49499989] yes=3,no=4,missing=3
		3:[f3<2.25500011] yes=7,no=8,missing=7
			7:[f2<3.3599999] yes=13,no=14,missing=13
				13:leaf=-0.311569899
				14:[f0<3.32000017] yes=19,no=20,missing=19
					19:leaf=0.346101284
					20:leaf=-0.261594504
			8:[f0<3.83500004] yes=15,no=16,missing=15
				15:[f0<2.94999981] yes=21,no=22,missing=21
					21:leaf=-0.123186007
					22:leaf=0.700114429
				16:leaf=-0.247487575
		4:[f0<4.84500027] yes=9,no=10,missing=9
			9:leaf=1.23741686
			10:leaf=-0.278440326
	2:[f2<2.67000008] yes=5,no=6,missing=5
		5:[f2<2.4000001] yes=11,no=12,missing=11
			11:leaf=0.183830082
			12:leaf=1.29449987
		6:leaf=0.0482249409
booster[2]:
0:[f1<2.00500011] yes=1,no=2,missing=1
	1:[f0<4.50500011] yes=3,no=4,missing=3
		3:[f0<3.27999997] yes=7,no=8,missing=7
			7:leaf=-0.306064993
			8:[f3<2.26999998] yes=11,no=12,missing=11
				11:[f0<4.35500002] yes=17,no=18,missing=17
					17:leaf=1.62995756
					18:[f1<1.49000001] yes=27,no=28,missing=27
						27:leaf=-0.123186007
						28:leaf=0.398043215
				12:leaf=-0.232837781
		4:leaf=-0.316885561
	2:[f2<2.13500023] yes=5,no=6,missing=5
		5:leaf=-0.262945741
		6:[f3<2.34499979] yes=9,no=10,missing=9
			9:[f0<2.46999979] yes=13,no=14,missing=13
				13:leaf=-0.120177925
				14:[f1<3.01499987] yes=21,no=22,missing=21
					21:leaf=1.61615288
					22:[f2<2.57499981] yes=29,no=30,missing=29
						29:[f3<2.1400001] yes=37,no=38,missing=37
							37:leaf=-0.111392662
							38:[f2<2.53499985] yes=43,no=44,missing=43
								43:leaf=0.526718378
								44:leaf=-0.123186007
						30:leaf=0.768675983
			10:[f1<2.49499989] yes=15,no=16,missing=15
				15:[f3<2.58500004] yes=23,no=24,missing=23
					23:leaf=1.07933593
					24:[f2<3.3900001] yes=31,no=32,missing=31
						31:leaf=-0.178580448
						32:leaf=0.346101284
				16:[f1<2.73500013] yes=25,no=26,missing=25
					25:leaf=-0.170593858
					26:[f0<4.18499994] yes=35,no=36,missing=35
						35:leaf=0.445379466
						36:[f2<2.36500001] yes=39,no=40,missing=39
							39:leaf=0.261892349
							40:leaf=-0.186131015
booster[3]:
0:[f0<4.42500019] yes=1,no=2,missing=1
	1:[f2<3.66499996] yes=3,no=4,missing=3
		3:leaf=-0.314686179
		4:[f0<3.88499999] yes=7,no=8,missing=7
			7:leaf=-0.214382336
			8:leaf=0.261892349
	2:[f0<6.06500006] yes=5,no=6,missing=5
		5:[f3<2.5250001] yes=9,no=10,missing=9
			9:[f1<2.0999999] yes=13,no=14,missing=13
				13:[f2<2.03999996] yes=21,no=22,missing=21
					21:[f0<5.4749999] yes=33,no=34,missing=33
						33:leaf=1.02728355
						34:leaf=0.169101626
					22:[f0<4.5250001] yes=35,no=36,missing=35
						35:leaf=0.223134086
						36:leaf=1.66553092
				14:[f2<2.13500023] yes=23,no=24,missing=23
					23:leaf=1.1631825
					24:leaf=-0.258693457
			10:[f1<-1.25] yes=15,no=16,missing=15
				15:leaf=0.398043215
				16:leaf=-0.265747845
		6:[f0<6.46500015] yes=11,no=12,missing=11
			11:[f2<2.21000004] yes=17,no=18,missing=17
				17:[f1<1.44499993] yes=27,no=28,missing=27
					27:leaf=-0.282288492
					28:leaf=0.398043215
				18:[f3<1.92499995] yes=29,no=30,missing=29
					29:leaf=-0.135065421
					30:[f1<-1.28500009] yes=39,no=40,missing=39
						39:leaf=0.0482249409
						40:leaf=1.34007502
			12:leaf=-0.288637012
booster[4]:
0:[f1<-0.0850000009] yes=1,no=2,missing=1
	1:[f3<2.04999995] yes=3,no=4,missing=3
		3:[f3<1.77499998] yes=7,no=8,missing=7
			7:leaf=-0.266653329
			8:[f1<-0.449999988] yes=15,no=16,missing=15
				15:leaf=-0.199058294
				16:leaf=0.452496082
		4:[f0<7.05500031] yes=9,no=10,missing=9
			9:leaf=1.70129645
			10:leaf=0.346101284
	2:[f3<2.61499977] yes=5,no=6,missing=5
		5:[f2<0.870000005] yes=11,no=12,missing=11
			11:[f3<2.24499989] yes=17,no=18,missing=17
				17:leaf=-0.23854436
				18:leaf=0.545457184
			12:leaf=-0.304440975
		6:[f0<4.70499992] yes=13,no=14,missing=13
			13:[f1<0.314999998] yes=19,no=20,missing=19
				19:leaf=0.508372486
				20:leaf=-0.279120773
			14:[f1<2.00500011] yes=21,no=22,missing=21
				21:leaf=1.5255692
				22:leaf=-0
booster[5]:
0:[f0<5.97999954] yes=1,no=2,missing=1
	1:[f0<5.71000004] yes=3,no=4,missing=3
		3:leaf=-0.313426495
		4:[f3<1.78999996] yes=7,no=8,missing=7
			7:leaf=0.645923972
			8:leaf=-0.269914567
	2:[f1<0.135000005] yes=5,no=6,missing=5
		5:[f2<1.90999997] yes=9,no=10,missing=9
			9:leaf=-0.304755092
			10:[f3<2.01999998] yes=13,no=14,missing=13
				13:[f0<7.03499985] yes=17,no=18,missing=17
					17:leaf=0.943493783
					18:[f3<1.245] yes=25,no=26,missing=25
						25:leaf=0.28830722
						26:leaf=-0.243555874
				14:leaf=-0.226280734
		6:[f0<7.39000034] yes=11,no=12,missing=11
			11:[f3<1.91999996] yes=15,no=16,missing=15
				15:[f0<6.98499966] yes=19,no=20,missing=19
					19:leaf=1.6907984
					20:[f2<2.01499987] yes=27,no=28,missing=27
						27:[f3<1.53999996] yes=31,no=32,missing=31
							31:leaf=0.673272371
							32:leaf=-0.192920446
						28:leaf=0.821621239
				16:[f0<6.5250001] yes=21,no=22,missing=21
					21:leaf=-0.247992009
					22:leaf=0.346101284
			12:leaf=-0.269914567
booster[6]:
0:[f0<7.00500011] yes=1,no=2,missing=1
	1:[f0<6.91499996] yes=3,no=4,missing=3
		3:leaf=-0.313585281
		4:[f2<1.8900001] yes=9,no=10,missing=9
			9:leaf=-0.0912927836
			10:leaf=0.574943423
	2:[f3<2.19500017] yes=5,no=6,missing=5
		5:leaf=1.66927814
		6:leaf=0.0482249409
booster[7]:
0:[f0<3.23500013] yes=1,no=2,missing=1
	1:[f3<1.59000003] yes=3,no=4,missing=3
		3:leaf=0.490787148
		4:leaf=-0.168587551
	2:leaf=-0.296259671
booster[8]:
0:[f0<4.92500019] yes=1,no=2,missing=1
	1:[f3<1.75999999] yes=3,no=4,missing=3
		3:[f1<0.514999986] yes=5,no=6,missing=5
			5:[f1<0.405000001] yes=9,no=10,missing=9
				9:leaf=-0.209480613
				10:leaf=0.458234221
			6:leaf=-0.264327735
		4:[f1<0.219999999] yes=7,no=8,missing=7
			7:leaf=-0.186419651
			8:[f1<1.60000002] yes=13,no=14,missing=13
				13:leaf=0.594196856
				14:[f1<2.49499989] yes=15,no=16,missing=15
					15:[f3<2.59499979] yes=17,no=18,missing=17
						17:[f3<2.13999987] yes=21,no=22,missing=21
							21:leaf=-0.21610257
							22:[f0<3.94500017] yes=29,no=30,missing=29
								29:[f1<2.31500006] yes=41,no=42,missing=41
									41:leaf=0.423018515
									42:leaf=-0.124310963
								30:leaf=-0.120844372
						18:[f0<4.04500008] yes=23,no=24,missing=23
							23:leaf=-0.229512215
							24:[f1<2.07999992] yes=31,no=32,missing=31
								31:[f0<4.78999996] yes=45,no=46,missing=45
									45:leaf=-0.253297448
									46:leaf=0.222185448
								32:leaf=0.512796879
					16:[f1<3.20499992] yes=19,no=20,missing=19
						19:[f2<2.36999989] yes=25,no=26,missing=25
							25:leaf=0.0123756742
							26:[f0<2.76499987] yes=35,no=36,missing=35
								35:leaf=-0.0297806524
								36:leaf=0.562415838
						20:[f2<2.4749999] yes=27,no=28,missing=27
							27:leaf=-0.151272133
							28:leaf=0.217405111
	2:leaf=-0.293796003
booster[9]:
0:[f0<4.95499992] yes=1,no=2,missing=1
	1:[f0<2.68499994] yes=3,no=4,missing=3
		3:[f3<2.21499991] yes=7,no=8,missing=7
			7:leaf=-0.269940406
			8:leaf=0.139186367
		4:[f1<2.10500002] yes=9,no=10,missing=9
			9:[f3<2.17000008] yes=11,no=12,missing=11
				11:[f0<3.19500017] yes=15,no=16,missing=15
					15:leaf=-0.204035908
					16:[f0<4.42000008] yes=23,no=24,missing=23
						23:leaf=0.430274576
						24:leaf=-0.0207081046
				12:leaf=-0.208277956
			10:[f1<2.39499998] yes=13,no=14,missing=13
				13:leaf=0.574367821
				14:[f2<2.42500019] yes=21,no=22,missing=21
					21:leaf=0.529942691
					22:[f0<3.9749999] yes=29,no=30,missing=29
						29:[f3<2.16499996] yes=35,no=36,missing=35
							35:[f3<2.05499983] yes=43,no=44,missing=43
								43:leaf=0.29314217
								44:leaf=-0.0745653063
							36:leaf=0.45389238
						30:[f1<3.17500019] yes=37,no=38,missing=37
							37:leaf=-0.169432849
							38:leaf=0.221365795
	2:leaf=-0.288181782
booster[10]:
0:[f0<4.32499981] yes=1,no=2,missing=1
	1:leaf=-0.264683008
	2:[f0<6.46500015] yes=5,no=6,missing=5
		5:[f3<2.57499981] yes=11,no=12,missing=11
			11:[f1<2.92000008] yes=17,no=18,missing=17
				17:[f2<1.03499997] yes=23,no=24,missing=23
					23:leaf=-0.131128848
					24:[f3<1.85500002] yes=27,no=28,missing=27
						27:[f0<5.68499994] yes=29,no=30,missing=29
							29:leaf=0.493292987
							30:leaf=-0.191814914
						28:[f0<4.7750001] yes=31,no=32,missing=31
							31:[f1<2.04500008] yes=37,no=38,missing=37
								37:leaf=0.283133984
								38:leaf=-0.145752504
							32:leaf=0.495945126
				18:leaf=-0.023796726
			12:[f1<-0.629999995] yes=19,no=20,missing=19
				19:leaf=0.22181116
				20:leaf=-0.272415221
		6:leaf=-0.256821215
booster[11]:
0:[f1<0.284999996] yes=1,no=2,missing=1
	1:[f3<2.09499979] yes=3,no=4,missing=3
		3:[f0<6.84000015] yes=7,no=8,missing=7
			7:[f3<1.77499998] yes=15,no=16,missing=15
				15:leaf=-0.215037793
				16:[f2<2.28499985] yes=23,no=24,missing=23
					23:leaf=0.600268781
					24:leaf=-0.0791542083
			8:leaf=-0.26374656
		4:[f1<-0.430000007] yes=9,no=10,missing=9
			9:[f1<-1.38499999] yes=17,no=18,missing=17
				17:[f0<5.88000011] yes=25,no=26,missing=25
					25:leaf=-0.0643635243
					26:leaf=0.407446951
				18:leaf=-0.244351953
			10:leaf=0.514042854
	2:[f3<2.68499994] yes=5,no=6,missing=5
		5:leaf=-0.273197055
		6:[f0<4.75] yes=13,no=14,missing=13
			13:leaf=-0.233887866
			14:leaf=0.367165864
booster[12]:
0:[f0<5.63500023] yes=1,no=2,missing=1
	1:leaf=-0.288403541
	2:[f3<1.92499995] yes=3,no=4,missing=3
		3:[f0<7.18999958] yes=5,no=6,missing=5
			5:[f3<1.72500002] yes=9,no=10,missing=9
				9:leaf=0.496407986
				10:[f2<2.24499989] yes=15,no=16,missing=15
					15:[f1<1.74000001] yes=19,no=20,missing=19
						19:leaf=-0.342183173
						20:leaf=0.325448126
					16:[f0<6.02999973] yes=21,no=22,missing=21
						21:leaf=-0.157526746
						22:leaf=0.434518754
			6:[f2<1.92499995] yes=11,no=12,missing=11
				11:leaf=-0.256686717
				12:[f0<7.30000019] yes=17,no=18,missing=17
					17:leaf=0.258657217
					18:leaf=-0.113040358
		4:leaf=-0.248868689
booster[13]:
0:[f0<6.83500004] yes=1,no=2,missing=1
	1:leaf=-0.29223308
	2:[f1<1.20000005] yes=3,no=4,missing=3
		3:[f3<2.25] yes=5,no=6,missing=5
			5:[f2<2.57499981] yes=9,no=10,missing=9
				9:[f3<1.375] yes=11,no=12,missing=11
					11:[f0<7.30000019] yes=15,no=16,missing=15
						15:leaf=-0.226831734
						16:leaf=0.44110167
					12:leaf=0.47834453
				10:[f0<7.61999989] yes=13,no=14,missing=13
					13:leaf=-0.110406801
					14:leaf=0.339080095
			6:leaf=-0.137230486
		4:leaf=-0.163677245
booster[14]:
0:[f0<3.38000011] yes=1,no=2,missing=1
	1:[f3<1.85000002] yes=3,no=4,missing=3
		3:leaf=0.370657921
		4:leaf=-0.171838954
	2:leaf=-0.28540507
booster[15]:
0:[f0<4.99499989] yes=1,no=2,missing=1
	1:[f3<1.625] yes=3,no=4,missing=3
		3:leaf=-0.225408062
		4:[f0<4.34000015] yes=7,no=8,missing=7
			7:[f2<2.46500015] yes=11,no=12,missing=11
				11:leaf=0.418955296
				12:[f1<2.39499998] yes=17,no=18,missing=17
					17:[f0<3.5] yes=21,no=22,missing=21
						21:leaf=0.202302217
						22:leaf=-0.262355715
					18:[f0<3.99499989] yes=23,no=24,missing=23
						23:[f3<2.14499998] yes=29,no=30,missing=29
							29:leaf=0.330667436
							30:[f2<2.60500002] yes=39,no=40,missing=39
								39:leaf=-0.179583907
								40:[f0<3.42000008] yes=47,no=48,missing=47
									47:leaf=-0.113130815
									48:leaf=0.280681163
						24:leaf=0.414429694
			8:[f3<2.43499994] yes=13,no=14,missing=13
				13:leaf=-0.249301881
				14:[f1<0.314999998] yes=19,no=20,missing=19
					19:leaf=-0.251442432
					20:[f2<3.13999987] yes=25,no=26,missing=25
						25:leaf=0.384254932
						26:[f2<3.19500017] yes=35,no=36,missing=35
							35:leaf=-0.297270834
							36:[f2<3.20499992] yes=41,no=42,missing=41
								41:leaf=0.323003829
								42:leaf=-0.101944461
	2:leaf=-0.283074677
booster[16]:
0:[f0<5.06000042] yes=1,no=2,missing=1
	1:[f1<1.90499997] yes=3,no=4,missing=3
		3:[f0<3.17500019] yes=5,no=6,missing=5
			5:leaf=-0.249830484
			6:[f3<2.24000001] yes=9,no=10,missing=9
				9:[f0<4.51000023] yes=13,no=14,missing=13
					13:[f3<1.45500004] yes=19,no=20,missing=19
						19:[f0<4.33500004] yes=29,no=30,missing=29
							29:[f0<3.38000011] yes=39,no=40,missing=39
								39:leaf=-0.0897145197
								40:leaf=0.288709909
							30:leaf=-0.180348873
						20:leaf=0.432393938
					14:leaf=-0.175217569
				10:leaf=-0.204461843
		4:[f0<2.07999992] yes=7,no=8,missing=7
			7:leaf=-0.182335481
			8:[f3<2.48500013] yes=11,no=12,missing=11
				11:[f2<2.68499994] yes=15,no=16,missing=15
					15:[f3<2.125] yes=21,no=22,missing=21
						21:[f1<2.79500008] yes=31,no=32,missing=31
							31:leaf=0.106817342
							32:leaf=-0.239718974
						22:[f2<2.49000001] yes=33,no=34,missing=33
							33:leaf=0.456543267
							34:[f0<3.88000011] yes=45,no=46,missing=45
								45:leaf=0.359754443
								46:leaf=-0.202304766
					16:leaf=0.362127244
				12:[f3<2.5250001] yes=17,no=18,missing=17
					17:leaf=-0.175388277
					18:[f1<2.49499989] yes=27,no=28,missing=27
						27:[f0<4.78999996] yes=35,no=36,missing=35
							35:[f3<2.60500002] yes=47,no=48,missing=47
								47:[f3<2.55499983] yes=61,no=62,missing=61
									61:leaf=0.327329129
									62:leaf=-0.152458087
								48:leaf=0.611742496
							36:leaf=-0.127712712
						28:[f3<2.58999991] yes=37,no=38,missing=37
							37:leaf=0.231952116
							38:leaf=-0.181659028
	2:leaf=-0.28200084
booster[17]:
0:[f0<4.2249999] yes=1,no=2,missing=1
	1:leaf=-0.278166771
	2:[f0<6.55000019] yes=3,no=4,missing=3
		3:[f3<2.32499981] yes=5,no=6,missing=5
			5:[f1<2.88500023] yes=9,no=10,missing=9
				9:[f0<4.40499973] yes=13,no=14,missing=13
					13:leaf=0.702232301
					14:[f3<1.80499995] yes=19,no=20,missing=19
						19:[f0<5.82000017] yes=25,no=26,missing=25
							25:leaf=0.27096194
							26:leaf=-0.129722893
						20:[f0<4.7750001] yes=27,no=28,missing=27
							27:leaf=-0.0299212169
							28:leaf=0.374812573
				10:leaf=-0.132976964
			6:[f2<2.75] yes=11,no=12,missing=11
				11:leaf=-0.229970872
				12:[f1<2.09499979] yes=17,no=18,missing=17
					17:leaf=0.168698654
					18:leaf=-0.181702629
		4:leaf=-0.25987196
booster[18]:
0:[f3<2.0250001] yes=1,no=2,missing=1
	1:leaf=-0.269453138
	2:[f0<4.63500023] yes=5,no=6,missing=5
		5:leaf=-0.269667417
		6:[f1<2.1099999] yes=9,no=10,missing=9
			9:[f2<2.54500008] yes=11,no=12,missing=11
				11:leaf=0.412201166
				12:[f2<3.05999994] yes=17,no=18,missing=17
					17:[f0<6.2750001] yes=19,no=20,missing=19
						19:leaf=-0.216887102
						20:leaf=0.237788841
					18:[f2<3.30499983] yes=21,no=22,missing=21
						21:leaf=0.399085164
						22:leaf=-0.19924292
			10:[f1<3.13000011] yes=13,no=14,missing=13
				13:leaf=-0.209938616
				14:leaf=0.221746415
booster[19]:
0:[f0<5.63500023] yes=1,no=2,missing=1
	1:leaf=-0.274092466
	2:[f3<1.94500005] yes=3,no=4,missing=3
		3:[f0<7.38500023] yes=5,no=6,missing=5
			5:[f1<0.0549999997] yes=7,no=8,missing=7
				7:[f0<6.26000023] yes=11,no=12,missing=11
					11:leaf=-0.213264883
					12:[f1<-0.465000004] yes=15,no=16,missing=15
						15:leaf=0.369387627
						16:leaf=-0.0416319035
				8:[f2<2.53499985] yes=13,no=14,missing=13
					13:[f1<0.875] yes=17,no=18,missing=17
						17:[f0<6.85500002] yes=23,no=24,missing=23
							23:leaf=0.247180581
							24:leaf=-0.171070322
						18:[f2<2.3900001] yes=25,no=26,missing=25
							25:leaf=0.355926126
							26:leaf=-0.0749028549
					14:leaf=0.452245265
			6:leaf=-0.180368945
		4:leaf=-0.262519538
booster[20]:
0:[f0<6.86499977] yes=1,no=2,missing=1
	1:leaf=-0.286025673
	2:[f2<2.56999993] yes=3,no=4,missing=3
		3:[f1<-0.13499999] yes=5,no=6,missing=5
			5:[f2<1.45000005] yes=9,no=10,missing=9
				9:leaf=-0.23916553
				10:leaf=0.289442927
			6:[f3<1.245] yes=11,no=12,missing=11
				11:leaf=-0.0112365047
				12:[f0<6.96500015] yes=21,no=22,missing=21
					21:[f1<-0.075000003] yes=23,no=24,missing=23
						23:leaf=-0.118328363
						24:[f2<2.125] yes=27,no=28,missing=27
							27:leaf=0.364944607
							28:leaf=-0.122866906
					22:[f1<0.86500001] yes=25,no=26,missing=25
						25:leaf=0.40741384
						26:[f3<1.39499998] yes=29,no=30,missing=29
							29:leaf=-0.120796427
							30:leaf=0.325805962
		4:[f0<7.61999989] yes=7,no=8,missing=7
			7:leaf=-0.244950175
			8:leaf=0.265062064
booster[21]:
0:[f0<3.24000001] yes=1,no=2,missing=1
	1:[f3<2.02999997] yes=3,no=4,missing=3
		3:[f0<2.74000001] yes=5,no=6,missing=5
			5:leaf=0.324229151
			6:[f2<2.43000007] yes=7,no=8,missing=7
				7:leaf=0.288861513
				8:leaf=-0.368743628
		4:leaf=-0.158172891
	2:leaf=-0.278932184
booster[22]:
0:[f0<4.90499973] yes=1,no=2,missing=1
	1:[f3<1.96500003] yes=3,no=4,missing=3
		3:[f1<0.524999976] yes=5,no=6,missing=5
			5:[f3<0.584999979] yes=9,no=10,missing=9
				9:leaf=-0.125558391
				10:leaf=0.460941613
			6:[f1<2.96500015] yes=11,no=12,missing=11
				11:leaf=-0.256997079
				12:leaf=0.212698013
		4:[f1<0.219999999] yes=7,no=8,missing=7
			7:leaf=-0.162668824
			8:[f3<2.67500019] yes=13,no=14,missing=13
				13:[f0<4.00500011] yes=15,no=16,missing=15
					15:[f1<3.26499987] yes=19,no=20,missing=19
						19:[f0<3.43499994] yes=25,no=26,missing=25
							25:[f3<2.13499999] yes=33,no=34,missing=33
								33:leaf=0.28707239
								34:leaf=-0.0788630247
							26:leaf=0.299408376
						20:leaf=-0.0196528081
					16:[f3<2.60500002] yes=21,no=22,missing=21
						21:[f3<2.59499979] yes=29,no=30,missing=29
							29:[f1<2.28499985] yes=37,no=38,missing=37
								37:leaf=-0.2215496
								38:[f2<2.49499989] yes=45,no=46,missing=45
									45:leaf=-0.128804713
									46:leaf=0.238754645
							30:leaf=0.308006853
						22:leaf=-0.236742064
				14:[f2<3.38500023] yes=17,no=18,missing=17
					17:leaf=0.381394863
					18:leaf=-0.0469077975
	2:leaf=-0.276061356
booster[23]:
0:[f0<4.63000011] yes=1,no=2,missing=1
	1:[f3<1.66000009] yes=3,no=4,missing=3
		3:[f0<3.16499996] yes=7,no=8,missing=7
			7:leaf=-0.247417301
			8:[f0<4.2249999] yes=13,no=14,missing=13
				13:leaf=0.263528943
				14:leaf=-0.173071727
		4:[f1<0.789999962] yes=9,no=10,missing=9
			9:leaf=-0.179416746
			10:[f3<2.79500008] yes=15,no=16,missing=15
				15:[f1<2.49499989] yes=23,no=24,missing=23
					23:leaf=0.395398378
					24:[f2<2.49499989] yes=29,no=30,missing=29
						29:[f3<2.01499987] yes=31,no=32,missing=31
							31:leaf=-0.0563059337
							32:leaf=0.434764355
						30:[f0<3.34500003] yes=33,no=34,missing=33
							33:leaf=0.330251396
							34:[f1<3.125] yes=39,no=40,missing=39
								39:leaf=-0.261921942
								40:leaf=0.0713167563
				16:leaf=-0.00443911925
	2:[f1<2.08500004] yes=5,no=6,missing=5
		5:leaf=-0.278728038
		6:[f3<2.3900001] yes=11,no=12,missing=11
			11:[f0<4.97500038] yes=17,no=18,missing=17
				17:leaf=0.278805435
				18:leaf=-0.170742437
			12:leaf=-0.257407814
booster[24]:
0:[f0<4.26500034] yes=1,no=2,missing=1
	1:leaf=-0.248054579
	2:[f0<6.39499998] yes=5,no=6,missing=5
		5:[f3<2.57499981] yes=7,no=8,missing=7
			7:[f2<1.85500002] yes=11,no=12,missing=11
				11:leaf=0.100850403
				12:[f2<2.65500021] yes=19,no=20,missing=19
					19:[f1<3.0250001] yes=29,no=30,missing=29
						29:[f3<1.54999995] yes=35,no=36,missing=35
							35:leaf=0.0878514051
							36:[f1<2.77999997] yes=43,no=44,missing=43
								43:leaf=0.357332408
								44:[f2<2.13500023] yes=53,no=54,missing=53
									53:leaf=0.320226938
									54:leaf=-0.144126952
						30:leaf=-0.00265030307
					20:[f0<5.51000023] yes=31,no=32,missing=31
						31:[f2<2.95499992] yes=37,no=38,missing=37
							37:leaf=0.0340463854
							38:leaf=0.337658614
						32:[f3<1.91499996] yes=39,no=40,missing=39
							39:leaf=-0.308533579
							40:leaf=0.187848493
			8:leaf=-0.207862586
		6:[f3<1.91499996] yes=9,no=10,missing=9
			9:leaf=-0.261162043
			10:[f3<2.07999992] yes=15,no=16,missing=15
				15:[f2<2.3499999] yes=21,no=22,missing=21
					21:leaf=0.037709523
					22:leaf=0.559513509
				16:leaf=-0.180339754
booster[25]:
0:[f3<2.06500006] yes=1,no=2,missing=1
	1:[f1<-0.204999998] yes=3,no=4,missing=3
		3:[f1<-0.350000024] yes=7,no=8,missing=7
			7:leaf=-0.200968936
			8:leaf=0.194335416
		4:leaf=-0.275240272
	2:[f0<4.63500023] yes=5,no=6,missing=5
		5:leaf=-0.269953221
		6:[f1<1.90499997] yes=9,no=10,missing=9
			9:[f1<-0.444999993] yes=11,no=12,missing=11
				11:[f0<5.88500023] yes=15,no=16,missing=15
					15:leaf=-0.144143999
					16:leaf=0.19378686
				12:[f3<2.09499979] yes=17,no=18,missing=17
					17:leaf=-0.0111608496
					18:[f0<7.10999966] yes=25,no=26,missing=25
						25:[f3<2.21500015] yes=29,no=30,missing=29
							29:[f2<1.125] yes=31,no=32,missing=31
								31:leaf=-0.132191002
								32:[f2<2.09000015] yes=35,no=36,missing=35
									35:leaf=0.50864476
									36:leaf=-0.109148189
							30:leaf=0.35724476
						26:leaf=0.0289672278
			10:leaf=-0.135330856
booster[26]:
0:[f0<6.14499998] yes=1,no=2,missing=1
	1:[f2<1.96500003] yes=3,no=4,missing=3
		3:[f2<1.54499996] yes=7,no=8,missing=7
			7:leaf=-0.236653283
			8:[f0<4.71500015] yes=13,no=14,missing=13
				13:leaf=-0.16200313
				14:leaf=0.289352208
		4:leaf=-0.285247087
	2:[f3<1.91499996] yes=5,no=6,missing=5
		5:[f0<7.32499981] yes=9,no=10,missing=9
			9:[f3<1.45500004] yes=15,no=16,missing=15
				15:leaf=0.430280626
				16:[f2<2.26499987] yes=25,no=26,missing=25
					25:[f0<6.83500004] yes=29,no=30,missing=29
						29:leaf=0.265612334
						30:[f3<1.63499999] yes=33,no=34,missing=33
							33:[f2<1.90499997] yes=35,no=36,missing=35
								35:leaf=-0.146566436
								36:leaf=0.299170524
							34:leaf=-0.209380582
					26:leaf=0.353277326
			10:leaf=-0.10987924
		6:[f1<0.0399999991] yes=11,no=12,missing=11
			11:leaf=-0.266169339
			12:[f1<0.405000001] yes=19,no=20,missing=19
				19:leaf=0.40389514
				20:leaf=-0.203670412
booster[27]:
0:[f0<6.80500031] yes=1,no=2,missing=1
	1:leaf=-0.269086272
	2:[f0<7.14499998] yes=5,no=6,missing=5
		5:[f3<1.53499997] yes=9,no=10,missing=9
			9:leaf=-0.228400603
			10:[f2<2.21500015] yes=13,no=14,missing=13
				13:[f1<-0.13499999] yes=17,no=18,missing=17
					17:[f1<-0.379999995] yes=21,no=22,missing=21
						21:leaf=0.233805731
						22:leaf=-0.226146728
					18:leaf=0.414868355
				14:leaf=-0.176992744
		6:leaf=0.285446703
booster[28]:
0:[f0<3.38000011] yes=1,no=2,missing=1
	1:[f3<1.59000003] yes=3,no=4,missing=3
		3:leaf=0.276780695
		4:[f0<2.25500011] yes=7,no=8,missing=7
			7:leaf=0.204764903
			8:leaf=-0.254732549
	2:leaf=-0.270950943
booster[29]:
0:[f0<4.92500019] yes=1,no=2,missing=1
	1:[f3<1.61500001] yes=3,no=4,missing=3
		3:leaf=-0.15100424
		4:[f2<2.45000005] yes=7,no=8,missing=7
			7:[f1<0.360000014] yes=11,no=12,missing=11
				11:leaf=-0.0964947939
				12:leaf=0.297282219
			8:[f3<1.995] yes=13,no=14,missing=13
				13:leaf=-0.159314319
				14:[f0<3.75500011] yes=17,no=18,missing=17
					17:leaf=0.239130631
					18:[f0<3.99499989] yes=23,no=24,missing=23
						23:leaf=-0.12915419
						24:[f2<2.49499989] yes=33,no=34,missing=33
							33:leaf=-0.106629103
							34:[f1<2.3900001] yes=49,no=50,missing=49
								49:[f0<4.39499998] yes=57,no=58,missing=57
									57:leaf=-0.239031211
									58:leaf=0.146816581
								50:leaf=0.288279176
	2:leaf=-0.26526311
booster[30]:
0:[f0<4.86499977] yes=1,no=2,missing=1
	1:[f0<3.06500006] yes=3,no=4,missing=3
		3:[f2<2.95499992] yes=7,no=8,missing=7
			7:leaf=-0.23265563
			8:[f1<2.68499994] yes=13,no=14,missing=13
				13:leaf=0.237977028
				14:leaf=-0.182831362
		4:[f3<2.67500019] yes=9,no=10,missing=9
			9:[f1<1.27999997] yes=15,no=16,missing=15
				15:leaf=-0.0179450419
				16:[f2<3.19500017] yes=25,no=26,missing=25
					25:leaf=0.222170651
					26:[f0<3.88000011] yes=33,no=34,missing=33
						33:leaf=0.198176354
						34:leaf=-0.133578643
			10:[f0<4.04500008] yes=17,no=18,missing=17
				17:leaf=0.186930582
				18:leaf=-0.246124297
	2:leaf=-0.247606561
booster[31]:
0:[f0<4.2249999] yes=1,no=2,missing=1
	1:leaf=-0.227715597
	2:[f0<6.82499981] yes=5,no=6,missing=5
		5:[f3<2.66499996] yes=7,no=8,missing=7
			7:[f3<1.90499997] yes=9,no=10,missing=9
				9:[f0<5.53499985] yes=11,no=12,missing=11
					11:[f0<4.625] yes=15,no=16,missing=15
						15:[f0<4.48999977] yes=23,no=24,missing=23
							23:leaf=0.179459393
							24:leaf=-0.214753658
						16:leaf=0.279659688
					12:leaf=-0.159963965
				10:[f0<5.18499994] yes=13,no=14,missing=13
					13:[f1<2.08500004] yes=19,no=20,missing=19
						19:leaf=0.119827263
						20:[f2<2.1500001] yes=29,no=30,missing=29
							29:leaf=0.243044168
							30:leaf=-0.203843176
					14:leaf=0.290837586
			8:leaf=-0.21748738
		6:leaf=-0.240301669
booster[32]:
0:[f3<2.0250001] yes=1,no=2,missing=1
	1:leaf=-0.253048182
	2:[f0<4.64499998] yes=5,no=6,missing=5
		5:leaf=-0.246515229
		6:[f1<2.00500011] yes=9,no=10,missing=9
			9:[f0<6.9749999] yes=11,no=12,missing=11
				11:[f2<2.49499989] yes=15,no=16,missing=15
					15:leaf=0.317130625
					16:[f2<3.08500004] yes=21,no=22,missing=21
						21:[f0<6.51000023] yes=25,no=26,missing=25
							25:leaf=-0.176466644
							26:leaf=0.213465497
						22:[f0<5.73499966] yes=27,no=28,missing=27
							27:leaf=0.29918316
							28:leaf=-0.120787866
				12:[f2<1.15999997] yes=17,no=18,missing=17
					17:leaf=-0.270208597
					18:leaf=0.187025622
			10:[f1<3.0999999] yes=13,no=14,missing=13
				13:leaf=-0.206849977
				14:leaf=0.218692899
booster[33]:
0:[f3<2.00500011] yes=1,no=2,missing=1
	1:[f0<4.72000027] yes=3,no=4,missing=3
		3:leaf=-0.238354519
		4:[f0<7.36499977] yes=7,no=8,missing=7
			7:[f3<1.39499998] yes=11,no=12,missing=11
				11:leaf=0.50309819
				12:[f1<0.164999992] yes=17,no=18,missing=17
					17:[f1<-0.845000029] yes=19,no=20,missing=19
						19:leaf=0.229910046
						20:leaf=-0.144400373
					18:[f2<2.46500015] yes=21,no=22,missing=21
						21:[f1<1.36000001] yes=27,no=28,missing=27
							27:[f3<1.73500001] yes=33,no=34,missing=33
								33:[f2<1.80499995] yes=37,no=38,missing=37
									37:leaf=-0.151529476
									38:leaf=0.213790715
								34:leaf=-0.184172958
							28:leaf=0.335825682
						22:[f3<1.90499997] yes=29,no=30,missing=29
							29:leaf=0.37194562
							30:leaf=-0.0716593787
			8:leaf=-0.127411455
	2:leaf=-0.250504434
booster[34]:
0:[f0<6.80500031] yes=1,no=2,missing=1
	1:leaf=-0.258334905
	2:[f2<2.29500008] yes=5,no=6,missing=5
		5:[f3<1.30500007] yes=9,no=10,missing=9
			9:leaf=-0.154066637
			10:[f1<0.875] yes=15,no=16,missing=15
				15:[f3<2.10500002] yes=21,no=22,missing=21
					21:[f3<1.72500002] yes=25,no=26,missing=25
						25:[f2<2.11499977] yes=31,no=32,missing=31
							31:leaf=0.273307681
							32:[f0<7.125] yes=39,no=40,missing=39
								39:leaf=-0.384847492
								40:leaf=0.175319359
						26:leaf=0.40091157
					22:[f2<1.22500002] yes=27,no=28,missing=27
						27:[f0<6.96000004] yes=35,no=36,missing=35
							35:leaf=-0.149179772
							36:leaf=0.326314837
						28:leaf=-0.239630863
				16:[f2<2.03999996] yes=23,no=24,missing=23
					23:[f3<1.38499999] yes=29,no=30,missing=29
						29:leaf=-0.223677486
						30:leaf=0.219226614
					24:leaf=-0.289446652
		6:[f3<1.55500007] yes=11,no=12,missing=11
			11:leaf=0.200419784
			12:leaf=-0.276430756
booster[35]:
0:[f0<2.86999989] yes=1,no=2,missing=1
	1:leaf=0.270396829
	2:[f3<1.20000005] yes=5,no=6,missing=5
		5:leaf=0.0514623821
		6:leaf=-0.27150926
booster[36]:
0:[f3<1.96500003] yes=1,no=2,missing=1
	1:leaf=-0.260487705
	2:[f0<4.92500019] yes=3,no=4,missing=3
		3:[f2<3.73500013] yes=5,no=6,missing=5
			5:[f2<3.20499992] yes=7,no=8,missing=7
				7:[f1<0.144999996] yes=9,no=10,missing=9
					9:leaf=-0.140960619
					10:[f3<2.59499979] yes=13,no=14,missing=13
						13:[f0<4.60500002] yes=17,no=18,missing=17
							17:[f2<2.53499985] yes=25,no=26,missing=25
								25:[f1<3.125] yes=35,no=36,missing=35
									35:leaf=0.147463292
									36:leaf=-0.200752795
								26:leaf=0.218175858
							18:leaf=-0.217346475
						14:leaf=0.28170377
				8:[f1<2.15500021] yes=11,no=12,missing=11
					11:leaf=-0.316182941
					12:[f0<3.26999998] yes=15,no=16,missing=15
						15:leaf=-0.186040103
						16:leaf=0.121663429
			6:leaf=0.357057214
		4:leaf=-0.22283563
booster[37]:
0:[f1<1.60500002] yes=1,no=2,missing=1
	1:[f3<1.04499996] yes=3,no=4,missing=3
		3:leaf=0.0155015057
		4:leaf=-0.252871037
	2:[f1<2.59499979] yes=5,no=6,missing=5
		5:[f3<2.19500017] yes=11,no=12,missing=11
			11:[f0<4.63000011] yes=19,no=20,missing=19
				19:[f3<2.04999995] yes=31,no=32,missing=31
					31:[f0<2.26499987] yes=41,no=42,missing=41
						41:leaf=-0.148984119
						42:leaf=0.27077657
					32:leaf=-0.223784819
				20:leaf=-0.135799304
			12:[f1<2.00999999] yes=21,no=22,missing=21
				21:leaf=-0
				22:[f3<2.79500008] yes=35,no=36,missing=35
					35:[f2<3.20499992] yes=43,no=44,missing=43
						43:[f2<3.19500017] yes=57,no=58,missing=57
							57:leaf=0.286095828
							58:leaf=-0.157374457
						44:leaf=0.434249759
					36:leaf=0.0879218131
		6:[f2<2.50500011] yes=13,no=14,missing=13
			13:[f2<2.1400001] yes=23,no=24,missing=23
				23:leaf=-0.164230838
				24:[f0<4.04500008] yes=37,no=38,missing=37
					37:leaf=0.241642028
					38:[f2<2.3900001] yes=49,no=50,missing=49
						49:leaf=0.176427692
						50:leaf=-0.18625541
			14:leaf=-0.0711280257
booster[38]:
0:[f0<6.46500015] yes=1,no=2,missing=1
	1:[f0<3.92500019] yes=3,no=4,missing=3
		3:leaf=-0.232659236
		4:[f3<2.375] yes=7,no=8,missing=7
			7:[f3<1.255] yes=13,no=14,missing=13
				13:leaf=0.355397642
				14:[f0<4.45499992] yes=17,no=18,missing=17
					17:leaf=-0.210034788
					18:[f2<1.96500003] yes=21,no=22,missing=21
						21:[f1<1.21500003] yes=27,no=28,missing=27
							27:leaf=-0.33253625
							28:leaf=0.153831631
						22:leaf=0.218314886
			8:[f2<3.30499983] yes=15,no=16,missing=15
				15:leaf=-0.117548607
				16:leaf=0.337787807
	2:[f1<-0.649999976] yes=5,no=6,missing=5
		5:leaf=0.107764944
		6:leaf=-0.24522768
booster[39]:
0:[f3<2.0250001] yes=1,no=2,missing=1
	1:[f1<-0.305000007] yes=3,no=4,missing=3
		3:[f1<-0.344999999] yes=7,no=8,missing=7
			7:leaf=-0.155245528
			8:leaf=0.287994295
		4:leaf=-0.253521264
	2:[f1<2.1099999] yes=5,no=6,missing=5
		5:[f1<-0.430000007] yes=9,no=10,missing=9
			9:leaf=0.0211081523
			10:[f0<4.42500019] yes=15,no=16,missing=15
				15:leaf=-0.114746109
				16:leaf=0.289907277
		6:[f1<3.375] yes=11,no=12,missing=11
			11:leaf=-0.238932788
			12:leaf=0.18126598
booster[40]:
0:[f0<6.05500031] yes=1,no=2,missing=1
	1:[f3<1.77499998] yes=3,no=4,missing=3
		3:[f0<4.71000004] yes=7,no=8,missing=7
			7:leaf=-0.216363847
			8:leaf=0.0983602852
		4:leaf=-0.266160578
	2:[f3<1.98000002] yes=5,no=6,missing=5
		5:[f2<2.21000004] yes=9,no=10,missing=9
			9:[f3<1.73000002] yes=13,no=14,missing=13
				13:[f2<1.90499997] yes=19,no=20,missing=19
					19:[f0<7.01000023] yes=27,no=28,missing=27
						27:leaf=0.211472332
						28:leaf=-0.179656863
					20:leaf=0.259298533
				14:[f1<1.53500009] yes=21,no=22,missing=21
					21:leaf=-0.26228106
					22:leaf=0.192245036
			10:leaf=0.283597738
		6:leaf=-0.224176779
booster[41]:
0:[f0<6.86499977] yes=1,no=2,missing=1
	1:leaf=-0.265859365
	2:[f0<7.38500023] yes=3,no=4,missing=3
		3:[f1<0.164999992] yes=5,no=6,missing=5
			5:[f1<-0.13499999] yes=7,no=8,missing=7
				7:[f1<-0.340000004] yes=11,no=12,missing=11
					11:leaf=0.162436023
					12:leaf=-0.271824658
				8:leaf=0.222689062
			6:[f2<1.95500004] yes=9,no=10,missing=9
				9:leaf=0.0660222247
				10:leaf=-0.248217285
		4:leaf=0.26573512
booster[42]:
0:[f0<3.21500015] yes=1,no=2,missing=1
	1:[f2<3.0250001] yes=3,no=4,missing=3
		3:[f3<1.31500006] yes=5,no=6,missing=5
			5:leaf=0.266285032
			6:[f0<2.54500008] yes=9,no=10,missing=9
				9:leaf=0.196835294
				10:leaf=-0.215562075
		4:[f0<1.88499999] yes=7,no=8,missing=7
			7:leaf=0.177363753
			8:leaf=-0.312084377
	2:leaf=-0.260329634
booster[43]:
0:[f0<4.92500019] yes=1,no=2,missing=1
	1:[f1<2.69500017] yes=3,no=4,missing=3
		3:[f3<2.15500021] yes=5,no=6,missing=5
			5:[f2<3.36500001] yes=9,no=10,missing=9
				9:leaf=-0.232679367
				10:leaf=0.227458373
			6:[f1<2.51499987] yes=11,no=12,missing=11
				11:[f0<4.45499992] yes=17,no=18,missing=17
					17:leaf=0.194976315
					18:leaf=-0.0769101754
				12:leaf=-0.187731192
		4:[f0<3.58999991] yes=7,no=8,missing=7
			7:[f0<2.64499998] yes=13,no=14,missing=13
				13:leaf=-0.126562819
				14:leaf=0.406091213
			8:[f3<2.05499983] yes=15,no=16,missing=15
				15:leaf=-0.24172774
				16:[f3<2.26499987] yes=23,no=24,missing=23
					23:leaf=0.21317701
					24:[f0<4.30500031] yes=35,no=36,missing=35
						35:leaf=-0.139146715
						36:leaf=0.164278537
	2:leaf=-0.244796768
booster[44]:
0:[f0<5.06500006] yes=1,no=2,missing=1
	1:[f2<2.68499994] yes=3,no=4,missing=3
		3:[f0<3.38000011] yes=5,no=6,missing=5
			5:leaf=-0.262755305
			6:[f2<2.48500013] yes=9,no=10,missing=9
				9:[f3<2.53499985] yes=15,no=16,missing=15
					15:[f1<3.06999993] yes=23,no=24,missing=23
						23:[f2<2.42000008] yes=33,no=34,missing=33
							33:[f1<1.4749999] yes=45,no=46,missing=45
								45:[f0<4.25500011] yes=55,no=56,missing=55
									55:leaf=0.172763035
									56:leaf=-0.229132265
								46:leaf=0.234667674
							34:leaf=-0.191786498
						24:leaf=0.314807147
					16:leaf=-0.196856126
				10:leaf=-0.0716589242
		4:[f2<3.50999999] yes=7,no=8,missing=7
			7:[f0<2.08500004] yes=11,no=12,missing=11
				11:leaf=-0.112300217
				12:[f0<3.8900001] yes=19,no=20,missing=19
					19:leaf=0.26635319
					20:[f0<4.02999973] yes=31,no=32,missing=31
						31:leaf=-0.192954704
						32:[f2<3.2750001] yes=43,no=44,missing=43
							43:[f3<2.5250001] yes=51,no=52,missing=51
								51:[f3<2.48000002] yes=57,no=58,missing=57
									57:leaf=0.199206144
									58:leaf=-0.235782549
								52:leaf=0.257154793
							44:leaf=-0.0996520817
			8:leaf=-0.0734071881
	2:leaf=-0.246038333
booster[45]:
0:[f0<4.26500034] yes=1,no=2,missing=1
	1:leaf=-0.235277578
	2:[f0<6.78499985] yes=3,no=4,missing=3
		3:[f2<1.96500003] yes=5,no=6,missing=5
			5:[f1<1.5] yes=7,no=8,missing=7
				7:leaf=-0.23185046
				8:leaf=0.245677397
			6:[f1<2.01499987] yes=9,no=10,missing=9
				9:[f3<2.32499981] yes=13,no=14,missing=13
					13:leaf=0.181797192
					14:[f3<2.50500011] yes=21,no=22,missing=21
						21:leaf=-0.223912492
						22:leaf=0.21896632
				10:leaf=-0.100781269
		4:leaf=-0.22927013
booster[46]:
0:[f0<4.92500019] yes=1,no=2,missing=1
	1:leaf=-0.237728149
	2:[f3<2.04500008] yes=5,no=6,missing=5
		5:leaf=-0.145054355
		6:[f1<-1.15499997] yes=11,no=12,missing=11
			11:leaf=-0.033932671
			12:[f1<2.00999999] yes=17,no=18,missing=17
				17:[f0<5.81000042] yes=23,no=24,missing=23
					23:leaf=0.360315293
					24:[f1<-0.0649999976] yes=29,no=30,missing=29
						29:leaf=0.213821009
						30:leaf=-0.11497239
				18:leaf=-0.0727576166
booster[47]:
0:[f3<1.78499997] yes=1,no=2,missing=1
	1:[f0<5.85500002] yes=3,no=4,missing=3
		3:leaf=-0.121792719
		4:[f0<7.33500004] yes=9,no=10,missing=9
			9:[f3<1.68499994] yes=19,no=20,missing=19
				19:[f1<0.975000024] yes=29,no=30,missing=29
					29:leaf=0.303528279
					30:[f0<6.96000004] yes=39,no=40,missing=39
						39:leaf=0.24733071
						40:leaf=-0.115586996
				20:leaf=0.00138445839
			10:leaf=-0.184035182
	2:[f1<0.584999979] yes=5,no=6,missing=5
		5:[f1<0.0549999997] yes=11,no=12,missing=11
			11:leaf=-0.156441405
			12:leaf=0.206458941
		6:leaf=-0.244101524
booster[48]:
0:[f0<6.68499994] yes=1,no=2,missing=1
	1:leaf=-0.253217399
	2:[f1<1.15999997] yes=3,no=4,missing=3
		3:[f3<1.255] yes=5,no=6,missing=5
			5:leaf=-0.0737071559
			6:[f3<2.07499981] yes=9,no=10,missing=9
				9:[f2<2.32499981] yes=13,no=14,missing=13
					13:[f3<1.47500002] yes=17,no=18,missing=17
						17:[f0<7.23000002] yes=23,no=24,missing=23
							23:leaf=-0.225393802
							24:leaf=0.230008125
						18:leaf=0.333835363
					14:leaf=-0
				10:leaf=0.00385879795
		4:leaf=-0.188958839
booster[49]:
0:[f0<3.38000011] yes=1,no=2,missing=1
	1:[f2<3.75] yes=3,no=4,missing=3
		3:[f3<2.04999995] yes=5,no=6,missing=5
			5:leaf=0.245579988
			6:leaf=-0.146519408
		4:leaf=-0.265877575
	2:leaf=-0.246440515
booster[50]:
0:[f0<4.84500027] yes=1,no=2,missing=1
	1:[f3<2.29500008] yes=3,no=4,missing=3
		3:[f2<3.35500002] yes=5,no=6,missing=5
			5:[f1<3.01499987] yes=9,no=10,missing=9
				9:leaf=-0.231136203
				10:leaf=0.0379397869
			6:leaf=0.183952287
		4:[f3<2.5250001] yes=7,no=8,missing=7
			7:leaf=0.221295193
			8:leaf=0.0061858343
	2:leaf=-0.240260825
booster[51]:
0:[f0<4.60999966] yes=1,no=2,missing=1
	1:[f1<1.20000005] yes=3,no=4,missing=3
		3:leaf=-0.173538849
		4:[f3<2.51999998] yes=9,no=10,missing=9
			9:[f3<2.48000002] yes=15,no=16,missing=15
				15:[f0<4.4749999] yes=23,no=24,missing=23
					23:[f3<2.40500021] yes=31,no=32,missing=31
						31:[f3<2.31500006] yes=35,no=36,missing=35
							35:[f1<3.18499994] yes=41,no=42,missing=41
								41:leaf=-0.0227830037
								42:leaf=0.281500757
							36:leaf=-0.147421658
						32:leaf=0.159485385
					24:leaf=0.305356532
				16:leaf=-0.242417321
			10:leaf=0.223324612
	2:leaf=-0.191450268
booster[52]:
0:[f2<2.2249999] yes=1,no=2,missing=1
	1:leaf=-0.124810733
	2:[f0<4.2249999] yes=5,no=6,missing=5
		5:leaf=-0.204246193
		6:[f0<6.39499998] yes=11,no=12,missing=11
			11:[f3<2.74000001] yes=15,no=16,missing=15
				15:[f1<2.08500004] yes=21,no=22,missing=21
					21:[f3<1.79499996] yes=27,no=28,missing=27
						27:leaf=-0.0557982624
						28:leaf=0.231536269
					22:leaf=-0.0289952531
				16:leaf=-0.127507284
			12:leaf=-0.138782158
booster[53]:
0:[f0<4.63500023] yes=1,no=2,missing=1
	1:leaf=-0.228723317
	2:[f3<1.77499998] yes=3,no=4,missing=3
		3:leaf=-0.185719192
		4:[f2<2.54500008] yes=5,no=6,missing=5
			5:[f1<1.26999998] yes=7,no=8,missing=7
				7:leaf=0.284778625
				8:leaf=-0.176787421
			6:leaf=-0.00752741378
booster[54]:
0:[f0<5.71000004] yes=1,no=2,missing=1
	1:leaf=-0.239964738
	2:[f1<0.215000004] yes=3,no=4,missing=3
		3:leaf=-0.0520988256
		4:[f1<0.710000038] yes=7,no=8,missing=7
			7:leaf=0.287576109
			8:[f3<1.79499996] yes=13,no=14,missing=13
				13:leaf=0.167387366
				14:leaf=-0.110852249
booster[55]:
0:[f0<6.68499994] yes=1,no=2,missing=1
	1:leaf=-0.243671358
	2:[f1<-0.0549999997] yes=3,no=4,missing=3
		3:leaf=-0.0199489258
		4:[f1<1.13] yes=7,no=8,missing=7
			7:[f2<2.33500004] yes=11,no=12,missing=11
				11:[f3<1.36500001] yes=15,no=16,missing=15
					15:leaf=0.00357232918
					16:[f2<2.00500011] yes=25,no=26,missing=25
						25:leaf=0.292672038
						26:[f1<0.870000005] yes=31,no=32,missing=31
							31:leaf=0.294417381
							32:leaf=-0.185187891
				12:leaf=-0.0578022227
			8:leaf=-0.106116973
booster[56]:
0:[f0<2.73500013] yes=1,no=2,missing=1
	1:leaf=0.147508055
	2:[f3<0.995000005] yes=5,no=6,missing=5
		5:leaf=0.110863753
		6:leaf=-0.270249099
booster[57]:
0:[f1<2.09499979] yes=1,no=2,missing=1
	1:[f0<4.42500019] yes=3,no=4,missing=3
		3:leaf=0.0729739964
		4:leaf=-0.233940065
	2:[f1<3.06999993] yes=5,no=6,missing=5
		5:[f2<3.125] yes=9,no=10,missing=9
			9:leaf=0.280330449
			10:leaf=0.021667216
		6:[f0<3.25] yes=11,no=12,missing=11
			11:leaf=0.177872673
			12:[f0<4.13500023] yes=21,no=22,missing=21
				21:[f2<2.53999996] yes=27,no=28,missing=27
					27:leaf=-0.299499482
					28:[f1<3.18499994] yes=35,no=36,missing=35
						35:leaf=0.172653943
						36:leaf=-0.203499913
				22:leaf=0.103160553
booster[58]:
0:[f0<4.79500008] yes=1,no=2,missing=1
	1:[f2<3.29500008] yes=3,no=4,missing=3
		3:[f2<1.28499997] yes=7,no=8,missing=7
			7:leaf=-0.126927137
			8:[f0<3.16000009] yes=15,no=16,missing=15
				15:leaf=-0.0355054885
				16:[f0<4.31500006] yes=25,no=26,missing=25
					25:leaf=0.257138908
					26:[f0<4.34000015] yes=31,no=32,missing=31
						31:leaf=-0.226560697
						32:leaf=0.176550508
		4:leaf=-0.0757898092
	2:leaf=-0.181536272
booster[59]:
0:[f1<-0.654999971] yes=1,no=2,missing=1
	1:[f2<2.78499985] yes=3,no=4,missing=3
		3:leaf=0.329303443
		4:leaf=-0.116427742
	2:[f3<2.56500006] yes=5,no=6,missing=5
		5:[f3<0.965000033] yes=9,no=10,missing=9
			9:leaf=0.111222155
			10:[f1<1.07500005] yes=15,no=16,missing=15
				15:[f1<0.935000002] yes=21,no=22,missing=21
					21:[f0<6.06500006] yes=25,no=26,missing=25
						25:leaf=0.157916367
						26:leaf=-0.210742265
					22:leaf=-0.375550598
				16:[f0<5.2249999] yes=23,no=24,missing=23
					23:[f1<1.27999997] yes=27,no=28,missing=27
						27:leaf=0.200629249
						28:[f1<1.82500005] yes=35,no=36,missing=35
							35:leaf=-0.27609086
							36:[f1<2.01499987] yes=43,no=44,missing=43
								43:leaf=0.166965023
								44:leaf=-0.167492911
					24:leaf=0.0728059337
		6:[f2<3.10500002] yes=11,no=12,missing=11
			11:leaf=-0.0912785232
			12:[f1<2.0250001] yes=19,no=20,missing=19
				19:leaf=0.554341733
				20:leaf=-0.105603062
booster[60]:
0:[f0<4.74499989] yes=1,no=2,missing=1
	1:leaf=-0.224437311
	2:[f0<6.84500027] yes=3,no=4,missing=3
		3:leaf=0.110453688
		4:leaf=-0.118471123
booster[61]:
0:[f0<5.63500023] yes=1,no=2,missing=1
	1:leaf=-0.23177132
	2:[f1<1.28499997] yes=3,no=4,missing=3
		3:[f2<2.26999998] yes=5,no=6,missing=5
			5:[f3<1.72500002] yes=9,no=10,missing=9
				9:leaf=-0.00738406321
				10:leaf=-0.308197021
			6:[f1<0.140000001] yes=11,no=12,missing=11
				11:leaf=-0.105031729
				12:leaf=0.18311657
		4:leaf=0.255391538
booster[62]:
0:[f0<6.80500031] yes=1,no=2,missing=1
	1:leaf=-0.234425321
	2:[f1<-0.0949999988] yes=3,no=4,missing=3
		3:leaf=-0.059281297
		4:leaf=0.18402952
booster[63]:
0:[f0<3.38000011] yes=1,no=2,missing=1
	1:leaf=0.113972835
	2:leaf=-0.224714696
booster[64]:
0:[f0<4.90499973] yes=1,no=2,missing=1
	1:[f2<3.375] yes=3,no=4,missing=3
		3:[f3<2.69500017] yes=5,no=6,missing=5
			5:[f1<2.45499992] yes=9,no=10,missing=9
				9:[f2<0.814999998] yes=17,no=18,missing=17
					17:leaf=0.0667014793
					18:[f3<2.60500002] yes=23,no=24,missing=23
						23:[f3<2.48500013] yes=29,no=30,missing=29
							29:leaf=-0.191997498
							30:leaf=0.141739115
						24:leaf=-0.283174545
				10:[f2<2.50500011] yes=19,no=20,missing=19
					19:leaf=-0.032928016
					20:[f0<3.79500008] yes=27,no=28,missing=27
						27:[f1<2.59499979] yes=33,no=34,missing=33
							33:leaf=-0.198783547
							34:[f2<2.625] yes=45,no=46,missing=45
								45:leaf=-0.0298120864
								46:leaf=0.346860975
						28:leaf=0.266440421
			6:leaf=0.221100345
		4:leaf=-0.125884205
	2:leaf=-0.21628505
booster[65]:
0:[f1<1.58500004] yes=1,no=2,missing=1
	1:leaf=-0.19402431
	2:[f1<3.19500017] yes=5,no=6,missing=5
		5:[f3<2.125] yes=7,no=8,missing=7
			7:[f1<2.44500017] yes=11,no=12,missing=11
				11:leaf=0.0839938745
				12:leaf=-0.213320613
			8:leaf=0.166869789
		6:leaf=-0.132645026
booster[66]:
0:[f0<4.125] yes=1,no=2,missing=1
	1:leaf=-0.199589193
	2:[f2<3.30499983] yes=3,no=4,missing=3
		3:[f0<5.2249999] yes=5,no=6,missing=5
			5:[f0<5.17500019] yes=7,no=8,missing=7
				7:leaf=-0.00965805445
				8:leaf=-0.531489551
			6:[f0<6.60500002] yes=9,no=10,missing=9
				9:leaf=0.145588741
				10:leaf=-0.115605928
		4:leaf=0.291671604
booster[67]:
0:[f2<1.90499997] yes=1,no=2,missing=1
	1:leaf=0.0635311902
	2:[f0<4.99499989] yes=5,no=6,missing=5
		5:leaf=-0.260009229
		6:[f3<2.29500008] yes=13,no=14,missing=13
			13:leaf=-0.157454208
			14:leaf=0.117583983
booster[68]:
0:[f0<6.14499998] yes=1,no=2,missing=1
	1:leaf=-0.140757829
	2:[f0<7.2750001] yes=5,no=6,missing=5
		5:[f0<7.01500034] yes=9,no=10,missing=9
			9:leaf=0.0351676308
			10:[f2<2.06500006] yes=19,no=20,missing=19
				19:leaf=0.00741211185
				20:leaf=0.386297941
		6:leaf=-0.0859294683
booster[69]:
0:[f0<6.86499977] yes=1,no=2,missing=1
	1:leaf=-0.232073903
	2:[f1<0.86500001] yes=3,no=4,missing=3
		3:[f2<2.15500021] yes=5,no=6,missing=5
			5:leaf=0.247542068
			6:[f0<7.28999996] yes=11,no=12,missing=11
				11:[f3<1.78499997] yes=15,no=16,missing=15
					15:leaf=-0.326747298
					16:leaf=0.125889421
				12:leaf=0.123815596
		4:leaf=-0.114197321
booster[70]:
0:[f0<2.55499983] yes=1,no=2,missing=1
	1:leaf=0.168192059
	2:[f3<1.19500005] yes=5,no=6,missing=5
		5:leaf=0.0937513933
		6:leaf=-0.253344297
booster[71]:
0:[f0<3.80499983] yes=1,no=2,missing=1
	1:[f1<0.784999967] yes=3,no=4,missing=3
		3:leaf=0.326428175
		4:[f0<3.71500015] yes=7,no=8,missing=7
			7:[f1<2.66499996] yes=13,no=14,missing=13
				13:leaf=-0.208634615
				14:leaf=0.0894161165
			8:leaf=0.309050053
	2:leaf=-0.0821101516
booster[72]:
0:[f2<3.11499977] yes=1,no=2,missing=1
	1:[f1<3.18499994] yes=3,no=4,missing=3
		3:[f3<1.60500002] yes=7,no=8,missing=7
			7:leaf=0.0240595043
			8:[f0<4.67000008] yes=17,no=18,missing=17
				17:leaf=-0.169297501
				18:[f2<2.7249999] yes=35,no=36,missing=35
					35:leaf=-0.177199021
					36:leaf=0.179095119
		4:leaf=0.0607437938
	2:[f1<2.49499989] yes=5,no=6,missing=5
		5:[f2<3.6500001] yes=11,no=12,missing=11
			11:leaf=0.237608597
			12:leaf=-0.137124851
		6:[f2<3.375] yes=13,no=14,missing=13
			13:leaf=-0.224818572
			14:leaf=0.11694786
booster[73]:
0:[f0<4.22000027] yes=1,no=2,missing=1
	1:leaf=-0.186571687
	2:[f3<2.48500013] yes=3,no=4,missing=3
		3:[f0<5.17500019] yes=5,no=6,missing=5
			5:leaf=0.11302726
			6:[f0<5.64499998] yes=11,no=12,missing=11
				11:leaf=-0.266960055
				12:leaf=0.0550507344
		4:leaf=0.229324356
booster[74]:
0:[f3<2.07499981] yes=1,no=2,missing=1
	1:leaf=-0.131430417
	2:leaf=0.0670777932
booster[75]:
0:[f3<2.04500008] yes=1,no=2,missing=1
	1:[f1<0.164999992] yes=3,no=4,missing=3
		3:leaf=-0.0424895734
		4:[f0<4.7249999] yes=7,no=8,missing=7
			7:leaf=-0.142911136
			8:[f3<1.55499995] yes=13,no=14,missing=13
				13:leaf=0.317849815
				14:[f2<2.05499983] yes=21,no=22,missing=21
					21:[f1<2.06999993] yes=25,no=26,missing=25
						25:leaf=-0.277949482
						26:leaf=0.190569207
					22:leaf=0.161856517
	2:leaf=-0.208907649
booster[76]:
0:[f3<1.43499994] yes=1,no=2,missing=1
	1:leaf=-0.162629634
	2:[f2<2.31500006] yes=5,no=6,missing=5
		5:[f0<6.99499989] yes=11,no=12,missing=11
			11:[f1<1.125] yes=17,no=18,missing=17
				17:leaf=0.306492269
				18:leaf=-0.135657236
			12:leaf=-0.0313859433
		6:leaf=-0.170169234
booster[77]:
0:leaf=-0.0430512019
booster[78]:
0:[f1<3.32999992] yes=1,no=2,missing=1
	1:[f2<2.25500011] yes=3,no=4,missing=3
		3:leaf=-0.155680224
		4:[f0<3.0999999] yes=7,no=8,missing=7
			7:[f0<2.56500006] yes=11,no=12,missing=11
				11:leaf=-0.0215709824
				12:leaf=0.520353556
			8:[f0<3.29999995] yes=13,no=14,missing=13
				13:leaf=-0.211605966
				14:[f3<2.03499985] yes=17,no=18,missing=17
					17:leaf=-0.181053698
					18:[f0<4.29500008] yes=21,no=22,missing=21
						21:[f2<2.53499985] yes=23,no=24,missing=23
							23:leaf=-0.115475021
							24:leaf=0.143750384
						22:[f1<1.99000001] yes=25,no=26,missing=25
							25:leaf=-0.118652806
							26:[f3<2.67000008] yes=31,no=32,missing=31
								31:[f1<2.28499985] yes=39,no=40,missing=39
									39:leaf=-0.114857107
									40:leaf=0.258655071
								32:leaf=0.339610457
	2:leaf=-0.294490218
booster[79]:
0:[f2<1.995] yes=1,no=2,missing=1
	1:leaf=-0.184234694
	2:[f0<4.79500008] yes=5,no=6,missing=5
		5:[f2<2.60500002] yes=7,no=8,missing=7
			7:leaf=0.118381582
			8:[f1<2.01499987] yes=13,no=14,missing=13
				13:leaf=0.203543335
				14:[f3<2.57999992] yes=21,no=22,missing=21
					21:[f3<2.01499987] yes=29,no=30,missing=29
						29:leaf=0.0650984123
						30:[f0<2.82999992] yes=43,no=44,missing=43
							43:leaf=0.127240241
							44:leaf=-0.273451924
					22:leaf=0.0437813327
		6:leaf=-0.111219548
booster[80]:
0:[f0<6.35500002] yes=1,no=2,missing=1
	1:[f0<3.92000008] yes=3,no=4,missing=3
		3:leaf=-0.14755404
		4:[f2<1.03499997] yes=7,no=8,missing=7
			7:leaf=-0.12380816
			8:[f0<4.56500006] yes=13,no=14,missing=13
				13:leaf=0.16133669
				14:[f3<1.63] yes=17,no=18,missing=17
					17:[f3<1.48500001] yes=21,no=22,missing=21
						21:leaf=0.140631676
						22:leaf=-0.308309615
					18:leaf=0.0808378309
	2:leaf=-0.161162496
booster[81]:
0:[f3<2.70499992] yes=1,no=2,missing=1
	1:[f0<6.28499985] yes=3,no=4,missing=3
		3:leaf=-0.163420171
		4:leaf=0.0704223886
	2:leaf=0.316282272
booster[82]:
0:[f3<1.95500004] yes=1,no=2,missing=1
	1:[f0<4.71500015] yes=3,no=4,missing=3
		3:leaf=-0.130853578
		4:[f1<1.40499997] yes=7,no=8,missing=7
			7:[f3<1.20000005] yes=11,no=12,missing=11
				11:leaf=0.304337054
				12:[f0<6.13500023] yes=15,no=16,missing=15
					15:leaf=-0.118982859
					16:[f2<1.90499997] yes=19,no=20,missing=19
						19:leaf=-0.0602838285
						20:[f1<0.185000002] yes=25,no=26,missing=25
							25:[f0<7.26500034] yes=29,no=30,missing=29
								29:leaf=0.130638435
								30:leaf=-0.205023795
							26:leaf=0.260704488
			8:leaf=0.276084006
	2:leaf=-0.173042297
booster[83]:
0:[f0<7.125] yes=1,no=2,missing=1
	1:[f0<7.0250001] yes=3,no=4,missing=3
		3:[f0<6.92500019] yes=7,no=8,missing=7
			7:leaf=-0.146790639
			8:leaf=0.158566266
		4:leaf=-0.259132802
	2:leaf=0.1316479
booster[84]:
0:[f0<2.35500002] yes=1,no=2,missing=1
	1:leaf=0.202080771
	2:leaf=-0.213136896
booster[85]:
0:[f0<4.92500019] yes=1,no=2,missing=1
	1:[f0<4.89499998] yes=3,no=4,missing=3
		3:[f1<0.834999979] yes=5,no=6,missing=5
			5:leaf=0.17960149
			6:[f1<2.29500008] yes=9,no=10,missing=9
				9:leaf=-0.210535511
				10:leaf=0.0185962133
		4:leaf=0.255031943
	2:leaf=-0.176554859
booster[86]:
0:[f0<4.79500008] yes=1,no=2,missing=1
	1:[f1<3.10500002] yes=3,no=4,missing=3
		3:leaf=0.0910899043
		4:[f3<2.46000004] yes=9,no=10,missing=9
			9:leaf=-0.1500438
			10:leaf=0.162737697
	2:leaf=-0.136515379
booster[87]:
0:leaf=-0.0467947982
booster[88]:
0:[f3<2.78499985] yes=1,no=2,missing=1
	1:[f0<4.99499989] yes=3,no=4,missing=3
		3:leaf=-0.249824271
		4:[f0<6.96500015] yes=7,no=8,missing=7
			7:[f0<5.22999954] yes=11,no=12,missing=11
				11:leaf=0.272218794
				12:[f0<5.89499998] yes=17,no=18,missing=17
					17:leaf=-0.209034443
					18:leaf=0.111476853
			8:leaf=-0.172410458
	2:leaf=0.181724384
booster[89]:
0:[f3<1.46500003] yes=1,no=2,missing=1
	1:leaf=0.117017619
	2:[f2<3.54500008] yes=5,no=6,missing=5
		5:[f1<1.14499998] yes=9,no=10,missing=9
			9:leaf=-0.146695241
			10:[f0<5.85500002] yes=17,no=18,missing=17
				17:leaf=-0.175487906
				18:leaf=0.180526629
		6:leaf=0.178940848
booster[90]:
0:[f0<6.68499994] yes=1,no=2,missing=1
	1:leaf=-0.192825496
	2:leaf=0.103890985
booster[91]:
0:[f3<1.31500006] yes=1,no=2,missing=1
	1:leaf=0.235604957
	2:leaf=-0.120659299
booster[92]:
0:[f2<3.29500008] yes=1,no=2,missing=1
	1:[f0<3.79500008] yes=3,no=4,missing=3
		3:[f2<2.48500013] yes=7,no=8,missing=7
			7:leaf=0.0561604947
			8:leaf=-0.279975355
		4:leaf=0.0215302315
	2:leaf=0.127528757
booster[93]:
0:leaf=-0.0196214654
booster[94]:
0:leaf=-0.0431675725
booster[95]:
0:leaf=0.00657523982
booster[96]:
0:leaf=0.0421228409
booster[97]:
0:[f0<6.85500002] yes=1,no=2,missing=1
	1:leaf=-0.202243537
	2:[f3<1.41499996] yes=3,no=4,missing=3
		3:[f0<7.35500002] yes=5,no=6,missing=5
			5:leaf=-0.258951217
			6:leaf=0.156190574
		4:[f3<2.14499998] yes=7,no=8,missing=7
			7:[f3<2.07499981] yes=11,no=12,missing=11
				11:[f2<1.95500004] yes=17,no=18,missing=17
					17:leaf=0.203112274
					18:[f1<0.784999967] yes=21,no=22,missing=21
						21:leaf=0.110483997
						22:leaf=-0.302326322
				12:leaf=-0.169657707
			8:leaf=0.196655676
booster[98]:
0:leaf=0.0046757441
booster[99]:
0:[f1<0.344999999] yes=1,no=2,missing=1
	1:leaf=-0.206209332
	2:[f2<3.75500011] yes=3,no=4,missing=3
		3:[f2<3.20499992] yes=5,no=6,missing=5
			5:[f2<2.625] yes=9,no=10,missing=9
				9:leaf=-0.0348997749
				10:[f0<4.34000015] yes=15,no=16,missing=15
					15:leaf=0.258042127
					16:leaf=-0.0662029833
			6:leaf=-0.125083596
		4:leaf=0.13148199
booster[100]:
0:[f1<3.3499999] yes=1,no=2,missing=1
	1:[f2<3.64499998] yes=3,no=4,missing=3
		3:[f0<5.05500031] yes=5,no=6,missing=5
			5:[f2<3.40500021] yes=9,no=10,missing=9
				9:[f3<2.59499979] yes=11,no=12,missing=11
					11:[f0<3.38000011] yes=13,no=14,missing=13
						13:leaf=-0.0811976716
						14:[f2<2.42500019] yes=19,no=20,missing=19
							19:leaf=0.201363072
							20:[f0<3.99499989] yes=25,no=26,missing=25
								25:leaf=0.128393665
								26:[f1<2.42500019] yes=29,no=30,missing=29
									29:leaf=0.0919430479
									30:leaf=-0.212206632
					12:leaf=-0.160563901
				10:leaf=0.229621321
			6:leaf=-0.175622448
		4:leaf=-0.161735818
	2:leaf=-0.26125589
booster[101]:
0:[f2<4.61999989] yes=1,no=2,missing=1
	1:leaf=-0.0868546441
	2:leaf=0.205040589
booster[102]:
0:[f0<4.63500023] yes=1,no=2,missing=1
	1:leaf=-0.178253248
	2:[f3<2.4749999] yes=3,no=4,missing=3
		3:[f0<6.39499998] yes=5,no=6,missing=5
			5:leaf=-0.203269437
			6:leaf=0.0674139783
		4:leaf=0.154664665
booster[103]:
0:[f1<-0.519999981] yes=1,no=2,missing=1
	1:leaf=0.141858816
	2:[f3<1.76499999] yes=5,no=6,missing=5
		5:[f2<1.81500006] yes=9,no=10,missing=9
			9:leaf=-0.185696319
			10:[f2<1.96500003] yes=15,no=16,missing=15
				15:[f3<1.54499996] yes=21,no=22,missing=21
					21:leaf=0.300305098
					22:leaf=-0.13834852
				16:leaf=-0.0263715591
		6:leaf=-0.17931731
booster[104]:
0:[f3<1.86500001] yes=1,no=2,missing=1
	1:[f3<1.78499997] yes=3,no=4,missing=3
		3:leaf=0.00549795385
		4:leaf=0.333912283
	2:leaf=-0.129487291
booster[105]:
0:leaf=-0.0583498925
booster[106]:
0:leaf=0.0211812612
booster[107]:
0:[f1<1.51499999] yes=1,no=2,missing=1
	1:leaf=-0.20472835
	2:leaf=0.00492195692
booster[108]:
0:[f2<2.43499994] yes=1,no=2,missing=1
	1:leaf=-0.0806177631
	2:[f1<2.09499979] yes=5,no=6,missing=5
		5:[f3<1.93499994] yes=11,no=12,missing=11
			11:leaf=-0.0744639337
			12:[f2<2.68499994] yes=23,no=24,missing=23
				23:leaf=0.248299956
				24:[f2<2.72000003] yes=35,no=36,missing=35
					35:leaf=-0.211018652
					36:leaf=0.163173214
		6:leaf=-0.0899497718
booster[109]:
0:[f3<2.04500008] yes=1,no=2,missing=1
	1:leaf=-0.144586772
	2:[f1<2.00999999] yes=5,no=6,missing=5
		5:leaf=0.189703241
		6:leaf=-0.155503705
booster[110]:
0:leaf=-0.0460461341
booster[111]:
0:[f1<0.925000012] yes=1,no=2,missing=1
	1:leaf=0.0291610155
	2:leaf=-0.218719572
booster[112]:
0:leaf=-0.0203783643
booster[113]:
0:[f0<4.19499969] yes=1,no=2,missing=1
	1:leaf=-0.0310028363
	2:[f1<2.19500017] yes=5,no=6,missing=5
		5:leaf=-0.0814014226
		6:leaf=0.183558345
booster[114]:
0:[f1<3.17500019] yes=1,no=2,missing=1
	1:[f0<3.11499977] yes=3,no=4,missing=3
		3:leaf=-0.219331652
		4:[f0<4.31500006] yes=7,no=8,missing=7
			7:[f3<2.2249999] yes=13,no=14,missing=13
				13:leaf=-0.0660845935
				14:leaf=0.152285352
			8:leaf=-0.0953395516
	2:leaf=0.204746649
booster[115]:
0:[f0<6.2249999] yes=1,no=2,missing=1
	1:[f0<5.76500034] yes=3,no=4,missing=3
		3:leaf=-0.0161364973
		4:leaf=0.215527415
	2:leaf=-0.119000375
booster[116]:
0:[f2<3.00500011] yes=1,no=2,missing=1
	1:leaf=0.0499611944
	2:leaf=-0.203864783
booster[117]:
0:[f0<5.53499985] yes=1,no=2,missing=1
	1:leaf=-0.208617777
	2:[f0<7.36999989] yes=3,no=4,missing=3
		3:[f3<1.78499997] yes=5,no=6,missing=5
			5:leaf=0.154098719
			6:[f1<0.574999988] yes=9,no=10,missing=9
				9:leaf=0.154346228
				10:leaf=-0.184889495
		4:leaf=-0.147124335
booster[118]:
0:leaf=0.0193318632
booster[119]:
0:leaf=-0.0278905667
booster[120]:
0:leaf=0.00953229796
booster[121]:
0:leaf=0.0320057683
booster[122]:
0:[f0<6.41499996] yes=1,no=2,missing=1
	1:[f1<1.68499994] yes=3,no=4,missing=3
		3:[f3<2.71500015] yes=7,no=8,missing=7
			7:[f2<2.48500013] yes=13,no=14,missing=13
				13:leaf=-0.0848135352
				14:[f1<1.02499998] yes=19,no=20,missing=19
					19:leaf=-0.0669442341
					20:leaf=-0.497598946
			8:leaf=0.194878742
		4:leaf=0.0458554849
	2:leaf=0.139025405
booster[123]:
0:leaf=0.0314848945
booster[124]:
0:[f3<1.78499997] yes=1,no=2,missing=1
	1:leaf=0.0734075084
	2:leaf=-0.146948516
booster[125]:
0:leaf=0.0236067213
booster[126]:
0:leaf=-0.0350843407
booster[127]:
0:leaf=0.0164600331
booster[128]:
0:[f0<3.76499987] yes=1,no=2,missing=1
	1:[f2<2.72000003] yes=3,no=4,missing=3
		3:leaf=-0.266002953
		4:leaf=0.0156645793
	2:leaf=0.0331795961
booster[129]:
0:leaf=0.0461164489
booster[130]:
0:[f3<2.04500008] yes=1,no=2,missing=1
	1:leaf=-0.139169008
	2:[f2<1.07500005] yes=5,no=6,missing=5
		5:leaf=-0.145520061
		6:[f2<2.72000003] yes=11,no=12,missing=11
			11:[f1<1.56500006] yes=13,no=14,missing=13
				13:leaf=0.309790581
				14:leaf=-0.141655222
			12:leaf=-0.0405497327
booster[131]:
0:[f0<6.15999985] yes=1,no=2,missing=1
	1:leaf=-0.145851642
	2:leaf=0.0834015384
booster[132]:
0:[f0<6.83500004] yes=1,no=2,missing=1
	1:leaf=-0.192260131
	2:[f1<1.005] yes=3,no=4,missing=3
		3:leaf=0.0992428213
		4:[f1<1.03499997] yes=7,no=8,missing=7
			7:leaf=-0.304253429
			8:leaf=0.116061904
booster[133]:
0:leaf=-0.121629074
booster[134]:
0:leaf=0.0309891291
booster[135]:
0:[f0<3.51499987] yes=1,no=2,missing=1
	1:leaf=-0.171098173
	2:[f0<4.125] yes=5,no=6,missing=5
		5:leaf=0.115966521
		6:leaf=-0.0499212109
booster[136]:
0:[f2<3.14499998] yes=1,no=2,missing=1
	1:leaf=0.0450971834
	2:leaf=-0.176517576
booster[137]:
0:leaf=-0.0206693579
booster[138]:
0:leaf=0.0247370191
booster[139]:
0:leaf=0.0315738805
booster[140]:
0:leaf=-0.00841170549
booster[141]:
0:[f3<2.61499977] yes=1,no=2,missing=1
	1:leaf=-0.0490359738
	2:leaf=0.149985924
booster[142]:
0:[f1<1.66499996] yes=1,no=2,missing=1
	1:leaf=-0.087870501
	2:[f1<3.14499998] yes=5,no=6,missing=5
		5:[f3<1.43499994] yes=11,no=12,missing=11
			11:leaf=-0.0877032429
			12:[f3<2.79500008] yes=19,no=20,missing=19
				19:[f2<3.38000011] yes=23,no=24,missing=23
					23:[f2<3.29500008] yes=31,no=32,missing=31
						31:[f1<3.04500008] yes=35,no=36,missing=35
							35:leaf=0.139462397
							36:[f3<2.43499994] yes=39,no=40,missing=39
								39:[f3<2.2249999] yes=43,no=44,missing=43
									43:leaf=-0.0943297297
									44:leaf=0.281758487
								40:leaf=-0.191143617
						32:leaf=-0.186954215
					24:leaf=0.217195168
				20:leaf=-0.0359482579
		6:leaf=-0.0492552817
booster[143]:
0:leaf=0.0217527244
booster[144]:
0:leaf=-0.0472597703
booster[145]:
0:[f0<5.95499992] yes=1,no=2,missing=1
	1:leaf=-0.181057334
	2:leaf=0.0869465917
booster[146]:
0:leaf=-0.0112329898
booster[147]:
0:leaf=0.0314083993
booster[148]:
0:leaf=-0.0131118698
booster[149]:
0:leaf=-0.00351478835
booster[150]:
0:leaf=0.0117841521
booster[151]:
0:[f0<7.06500006] yes=1,no=2,missing=1
	1:leaf=0.0540690422
	2:leaf=-0.262861222
booster[152]:
0:[f0<7.33500004] yes=1,no=2,missing=1
	1:[f0<4.74499989] yes=3,no=4,missing=3
		3:leaf=-0.121269614
		4:[f3<1.36500001] yes=5,no=6,missing=5
			5:leaf=0.20778738
			6:[f2<2.00500011] yes=9,no=10,missing=9
				9:[f1<1.09000003] yes=11,no=12,missing=11
					11:leaf=-0.219693199
					12:leaf=0.165998399
				10:leaf=0.0891487226
	2:leaf=-0.155376822
booster[153]:
0:[f1<-0.0949999988] yes=1,no=2,missing=1
	1:leaf=-0.150218651
	2:[f1<0.665000021] yes=5,no=6,missing=5
		5:leaf=0.19866547
		6:leaf=-0.0626453459
booster[154]:
0:leaf=-0.0450413637
booster[155]:
0:[f0<4.42500019] yes=1,no=2,missing=1
	1:leaf=0.0482993647
	2:leaf=-0.151325226
booster[156]:
0:leaf=0.00355246873
booster[157]:
0:[f2<3.51499987] yes=1,no=2,missing=1
	1:leaf=-0.0212428775
	2:leaf=0.256778002
booster[158]:
0:leaf=0.0283608306
booster[159]:
0:[f1<0.164999992] yes=1,no=2,missing=1
	1:leaf=-0.102152571
	2:[f2<2.2750001] yes=5,no=6,missing=5
		5:[f3<1.68499994] yes=9,no=10,missing=9
			9:[f2<1.92499995] yes=17,no=18,missing=17
				17:leaf=-0.0662204251
				18:leaf=0.268857718
			10:leaf=-0.209572449
		6:leaf=0.174675152
booster[160]:
0:leaf=0.0499622524
booster[161]:
0:leaf=0.038224034
booster[162]:
0:leaf=0.00443459162
booster[163]:
0:leaf=0.0115100257
booster[164]:
0:[f3<0.965000033] yes=1,no=2,missing=1
	1:leaf=0.241049781
	2:[f0<5.00500011] yes=3,no=4,missing=3
		3:[f2<3.20499992] yes=5,no=6,missing=5
			5:leaf=-0.192144737
			6:leaf=0.13690941
		4:leaf=0.0575002693
booster[165]:
0:[f3<2.78499985] yes=1,no=2,missing=1
	1:leaf=-0.102284513
	2:leaf=0.229155853
booster[166]:
0:[f2<3.55499983] yes=1,no=2,missing=1
	1:leaf=-0.0515723974
	2:leaf=0.373596758
booster[167]:
0:leaf=0.037703231
booster[168]:
0:leaf=-0.0177794434
booster[169]:
0:leaf=-0.0286401361
booster[170]:
0:[f0<4.31500006] yes=1,no=2,missing=1
	1:leaf=0.0641381517
	2:leaf=-0.0913143083
booster[171]:
0:[f0<5.03999996] yes=1,no=2,missing=1
	1:[f1<2.09499979] yes=3,no=4,missing=3
		3:leaf=0.237008527
		4:leaf=-0.0469479412
	2:[f0<5.2249999] yes=5,no=6,missing=5
		5:leaf=-0.301274151
		6:leaf=0.00817421917
booster[172]:
0:leaf=-0.000822289265
booster[173]:
0:[f3<1.91499996] yes=1,no=2,missing=1
	1:leaf=0.103537701
	2:leaf=-0.142596915
booster[174]:
0:leaf=0.0283163805
booster[175]:
0:leaf=-0.0139392298
booster[176]:
0:leaf=0.00973627158
booster[177]:
0:leaf=0.0406715758
booster[178]:
0:[f2<2.48500013] yes=1,no=2,missing=1
	1:leaf=0.107982337
	2:leaf=-0.133700743
booster[179]:
0:leaf=0.016978668
booster[180]:
0:[f0<6.35500002] yes=1,no=2,missing=1
	1:[f3<1.55499995] yes=3,no=4,missing=3
		3:leaf=0.152819335
		4:leaf=-0.193105176
	2:leaf=0.0821168497
booster[181]:
0:leaf=-0.0141645884
booster[182]:
0:leaf=0.0742025003
booster[183]:
0:leaf=-0.00969025865
booster[184]:
0:leaf=0.0225696005
booster[185]:
0:leaf=0.0294253752
booster[186]:
0:leaf=0.00901891477
booster[187]:
0:leaf=-0.0207090285
booster[188]:
0:[f3<1.255] yes=1,no=2,missing=1
	1:leaf=-0.215830028
	2:leaf=0.0923501477
booster[189]:
0:leaf=-0.00842779968
booster[190]:
0:leaf=0.0846585482
booster[191]:
0:leaf=-0.0404961295
booster[192]:
0:leaf=0.022247646
booster[193]:
0:leaf=0.012028995
booster[194]:
0:leaf=0.0519076474
booster[195]:
0:leaf=-0.00771988509
booster[196]:
0:[f0<3.23500013] yes=1,no=2,missing=1
	1:leaf=0.181966916
	2:leaf=-0.179772109
booster[197]:
0:[f3<2.05499983] yes=1,no=2,missing=1
	1:leaf=-0.135883287
	2:leaf=0.0762996823
booster[198]:
0:leaf=-0.0292336456
booster[199]:
0:leaf=-0.00806500111
booster[200]:
0:leaf=0.0135930981
booster[201]:
0:leaf=0.0190765373
booster[202]:
0:leaf=-0.00270001893
booster[203]:
0:leaf=-0.0448346175
booster[204]:
0:[f0<2.83500004] yes=1,no=2,missing=1
	1:leaf=-0.201118663
	2:[f1<2.11499977] yes=5,no=6,missing=5
		5:leaf=-0.112814613
		6:[f1<3.26499987] yes=9,no=10,missing=9
			9:[f0<3.08500004] yes=13,no=14,missing=13
				13:leaf=0.230794847
				14:[f0<3.6099999] yes=17,no=18,missing=17
					17:leaf=-0.0755124614
					18:[f2<2.43499994] yes=21,no=22,missing=21
						21:[f0<4.81500006] yes=25,no=26,missing=25
							25:leaf=-0.216820583
							26:leaf=0.188992426
						22:leaf=0.112588875
			10:leaf=-0.142043382
booster[205]:
0:leaf=0.0124899987
booster[206]:
0:leaf=-0.0578169264
booster[207]:
0:[f1<1.245] yes=1,no=2,missing=1
	1:leaf=0.0567480959
	2:leaf=-0.18838805
booster[208]:
0:leaf=-0.0309433732
booster[209]:
0:leaf=0.0325292349
booster[210]:
0:leaf=-0.0951477885
booster[211]:
0:[f1<3.125] yes=1,no=2,missing=1
	1:[f0<3.80499983] yes=3,no=4,missing=3
		3:leaf=0.145326704
		4:[f1<2.08999991] yes=9,no=10,missing=9
			9:leaf=-0.178986102
			10:[f2<2.74499989] yes=19,no=20,missing=19
				19:[f3<2.38000011] yes=27,no=28,missing=27
					27:[f2<2.49499989] yes=35,no=36,missing=35
						35:leaf=-0.120810181
						36:leaf=0.287465364
					28:leaf=0.266795129
				20:leaf=-0.0193249453
	2:leaf=-0.0707945973
booster[212]:
0:[f3<2.59499979] yes=1,no=2,missing=1
	1:leaf=0.0368528962
	2:leaf=-0.186630651
booster[213]:
0:leaf=-0.00355804828
booster[214]:
0:leaf=0.0649646893
booster[215]:
0:[f2<3.63500023] yes=1,no=2,missing=1
	1:[f1<0.185000002] yes=3,no=4,missing=3
		3:leaf=-0.124734484
		4:[f1<0.654999971] yes=7,no=8,missing=7
			7:leaf=0.199437812
			8:leaf=-0.0927334949
	2:leaf=0.270623147
booster[216]:
0:leaf=-0.0232539549
booster[217]:
0:leaf=0.0212706253
booster[218]:
0:[f2<2.44500017] yes=1,no=2,missing=1
	1:leaf=-0.0756674632
	2:[f2<3.125] yes=5,no=6,missing=5
		5:leaf=0.191292256
		6:leaf=-0.0118720056
booster[219]:
0:leaf=0.010961703
booster[220]:
0:leaf=-0.00327283097
booster[221]:
0:leaf=-0.0279858168
booster[222]:
0:leaf=-0.00285246805
booster[223]:
0:leaf=-0.00183824578
booster[224]:
0:leaf=-0.0143066514
booster[225]:
0:leaf=-0.0061764163
booster[226]:
0:[f2<3.55499983] yes=1,no=2,missing=1
	1:[f2<3.15500021] yes=3,no=4,missing=3
		3:[f2<2.53499985] yes=7,no=8,missing=7
			7:[f0<3.63000011] yes=11,no=12,missing=11
				11:leaf=-0.17776379
				12:[f0<4.63000011] yes=19,no=20,missing=19
					19:[f2<2.29500008] yes=25,no=26,missing=25
						25:leaf=0.291342288
						26:[f0<4.04500008] yes=33,no=34,missing=33
							33:leaf=0.256988645
							34:leaf=-0.0977568254
					20:leaf=-0.162943885
			8:leaf=-0.112358086
		4:leaf=0.176255539
	2:leaf=-0.149880916
booster[227]:
0:leaf=0.00761655811
booster[228]:
0:leaf=-0.0324913971
booster[229]:
0:leaf=-0.00482688518
booster[230]:
0:leaf=-0.000572786434
booster[231]:
0:leaf=-0.0165872443
booster[232]:
0:leaf=-0.0134879984
booster[233]:
0:[f3<2.16499996] yes=1,no=2,missing=1
	1:leaf=-0.09367989
	2:leaf=0.102563106
booster[234]:
0:leaf=0.00604164368
booster[235]:
0:leaf=-0.00366416387
booster[236]:
0:leaf=0.00136446476
booster[237]:
0:leaf=0.0020853749
booster[238]:
0:leaf=-0.0191364177
booster[239]:
0:leaf=0.0117751183
booster[240]:
0:leaf=0.00740880426
booster[241]:
0:leaf=-0.00561145134
booster[242]:
0:leaf=-0.050352186
booster[243]:
0:[f0<5.53499985] yes=1,no=2,missing=1
	1:leaf=-0.185622692
	2:leaf=0.103888027
booster[244]:
0:leaf=-0.00598218432
booster[245]:
0:leaf=-0.0547019057
booster[246]:
0:leaf=0.00766670704
booster[247]:
0:[f2<2.61499977] yes=1,no=2,missing=1
	1:[f0<4.2750001] yes=3,no=4,missing=3
		3:[f0<3.6099999] yes=7,no=8,missing=7
			7:[f0<3.38000011] yes=13,no=14,missing=13
				13:leaf=-0.172938466
				14:leaf=0.229579449
			8:leaf=-0.162729353
		4:leaf=0.0189242195
	2:leaf=0.0613158047
booster[248]:
0:leaf=0.0263905432
booster[249]:
0:[f2<3.30499983] yes=1,no=2,missing=1
	1:leaf=0.0845585465
	2:leaf=-0.257345587
booster[250]:
0:leaf=-0.0278358404
booster[251]:
0:leaf=0.0226979684
booster[252]:
0:leaf=0.0817663446
booster[253]:
0:leaf=-0.00813086517
booster[254]:
0:leaf=0.00485236989
booster[255]:
0:leaf=-0.0143040763
booster[256]:
0:leaf=0.00298435171
booster[257]:
0:[f2<3.65500021] yes=1,no=2,missing=1
	1:[f1<-0.935000002] yes=3,no=4,missing=3
		3:leaf=0.21598874
		4:[f1<0.0549999997] yes=5,no=6,missing=5
			5:leaf=-0.123498678
			6:[f1<0.534999967] yes=9,no=10,missing=9
				9:leaf=0.138969153
				10:[f3<1.625] yes=15,no=16,missing=15
					15:leaf=0.0883462653
					16:leaf=-0.181460589
	2:leaf=0.26225099
booster[258]:
0:leaf=-0.00756962225
booster[259]:
0:leaf=0.0248143431
booster[260]:
0:[f2<3.29500008] yes=1,no=2,missing=1
	1:leaf=-0.055292692
	2:leaf=0.170868158
booster[261]:
0:[f3<2.24499989] yes=1,no=2,missing=1
	1:leaf=0.0908869803
	2:leaf=-0.0645214766
booster[262]:
0:[f1<1.27499998] yes=1,no=2,missing=1
	1:[f1<-0.649999976] yes=3,no=4,missing=3
		3:leaf=0.0975043923
		4:leaf=-0.190091223
	2:leaf=0.0581784844
booster[263]:
0:leaf=0.0385324061
booster[264]:
0:leaf=-0.00314900232
booster[265]:
0:leaf=0.0225143917
booster[266]:
0:leaf=0.0197548699
booster[267]:
0:leaf=-0.00356957898
booster[268]:
0:[f2<2.13500023] yes=1,no=2,missing=1
	1:leaf=-0.206482172
	2:leaf=0.0330974534
booster[269]:
0:[f3<1.60500002] yes=1,no=2,missing=1
	1:leaf=-0.124982789
	2:[f2<2.68499994] yes=5,no=6,missing=5
		5:leaf=0.0481030568
		6:[f0<4.68000031] yes=11,no=12,missing=11
			11:[f3<2.36499977] yes=19,no=20,missing=19
				19:leaf=-0.198203608
				20:leaf=0.264655828
			12:leaf=-0.102014072
booster[270]:
0:leaf=-0.0116271479
booster[271]:
0:leaf=0.0139032817
booster[272]:
0:leaf=0.0176345594
booster[273]:
0:leaf=-0.0188344698
booster[274]:
0:leaf=-0.000719995413
booster[275]:
0:leaf=0.0267618876
booster[276]:
0:leaf=0.0100802323
booster[277]:
0:leaf=-0.0390852913
booster[278]:
0:leaf=-0.0427637547
booster[279]:
0:leaf=0.0344353877
booster[280]:
0:leaf=-0.0328463651
booster[281]:
0:leaf=0.0440272354
booster[282]:
0:[f1<3.16499996] yes=1,no=2,missing=1
	1:[f1<0.995000005] yes=3,no=4,missing=3
		3:leaf=0.12831305
		4:[f3<2.19500017] yes=9,no=10,missing=9
			9:leaf=-0.118160516
			10:[f1<2.39499998] yes=15,no=16,missing=15
				15:leaf=0.0882813409
				16:[f3<2.39499998] yes=23,no=24,missing=23
					23:leaf=0.074111551
					24:[f0<3.26499987] yes=35,no=36,missing=35
						35:leaf=0.188512266
						36:leaf=-0.220413342
	2:[f0<3.27999997] yes=5,no=6,missing=5
		5:leaf=-0.165106609
		6:leaf=0.245537013
booster[283]:
0:leaf=0.0319846906
booster[284]:
0:leaf=-0.0333915092
booster[285]:
0:leaf=0.0271643754
booster[286]:
0:leaf=0.0233431067
booster[287]:
0:leaf=0.0584130995
booster[288]:
0:[f3<2.18499994] yes=1,no=2,missing=1
	1:leaf=-0.17317231
	2:leaf=0.0166156366
booster[289]:
0:leaf=-0.00731096324
booster[290]:
0:leaf=-0.010135049
booster[291]:
0:[f3<2.21500015] yes=1,no=2,missing=1
	1:leaf=-0.123165525
	2:leaf=0.100920752
booster[292]:
0:leaf=0.0113582527
booster[293]:
0:leaf=-0.0657041296
booster[294]:
0:leaf=-0.0270762965
booster[295]:
0:leaf=-0.00110514357
booster[296]:
0:leaf=0.0304857902
booster[297]:
0:leaf=0.0269445926
booster[298]:
0:leaf=0.0110583855
booster[299]:
0:leaf=-0.0311479401
booster[300]:
0:[f0<7.125] yes=1,no=2,missing=1
	1:leaf=-0.0764147416
	2:leaf=0.145572051
booster[301]:
0:leaf=-0.0784114152
booster[302]:
0:[f1<2.98500013] yes=1,no=2,missing=1
	1:leaf=-0.0737677664
	2:[f2<2.53499985] yes=5,no=6,missing=5
		5:[f1<3.125] yes=9,no=10,missing=9
			9:leaf=0.216779023
			10:leaf=-0.138511866
		6:leaf=0.239496469
booster[303]:
0:leaf=0.0133142937
booster[304]:
0:leaf=0.0196978226
booster[305]:
0:leaf=-0.0110623566
booster[306]:
0:leaf=-0.00428653415
booster[307]:
0:leaf=-0.0429186299
booster[308]:
0:leaf=0.0196358617
booster[309]:
0:leaf=-0.034104988
booster[310]:
0:leaf=0.0203059874
booster[311]:
0:leaf=0.0161632746
booster[312]:
0:[f3<2.19500017] yes=1,no=2,missing=1
	1:leaf=-0.137852043
	2:leaf=0.114981823
booster[313]:
0:leaf=0.0146593023
booster[314]:
0:leaf=-0.000781256531
booster[315]:
0:leaf=-0.00554440403
booster[316]:
0:leaf=0.0197984669
booster[317]:
0:leaf=-0.0203549061
booster[318]:
0:leaf=-0.0360073633
booster[319]:
0:leaf=-0.0352413654
booster[320]:
0:leaf=0.0244847182
booster[321]:
0:leaf=-0.0194887258
booster[322]:
0:leaf=-0.0250014625
booster[323]:
0:leaf=0.0265470035
booster[324]:
0:leaf=-0.00881975796
booster[325]:
0:leaf=-0.0405952595
booster[326]:
0:[f1<1.02499998] yes=1,no=2,missing=1
	1:leaf=-0.0760760009
	2:leaf=0.176369384
booster[327]:
0:leaf=-0.0411251374
booster[328]:
0:leaf=0.000996515038
booster[329]:
0:leaf=-0.0455338918
booster[330]:
0:leaf=-0.0243688282
booster[331]:
0:leaf=-0.028121246
booster[332]:
0:leaf=-0.0116734374
booster[333]:
0:leaf=0.0334769525
booster[334]:
0:[f1<1.18499994] yes=1,no=2,missing=1
	1:leaf=-0.0665681362
	2:leaf=0.163141385
booster[335]:
0:leaf=0.0166240893
booster[336]:
0:[f1<1.09500003] yes=1,no=2,missing=1
	1:leaf=-0.18752639
	2:leaf=0.16148223
booster[337]:
0:leaf=0.0186618902
booster[338]:
0:[f0<4.53499985] yes=1,no=2,missing=1
	1:leaf=0.057387758
	2:leaf=-0.152175441
booster[339]:
0:leaf=0.0412401557
booster[340]:
0:[f1<1.90499997] yes=1,no=2,missing=1
	1:leaf=0.0313167349
	2:leaf=-0.242952585
booster[341]:
0:leaf=-0.0243563466
booster[342]:
0:leaf=0.0116394069
booster[343]:
0:leaf=0.0280663911
booster[344]:
0:leaf=-0.0119986273
booster[345]:
0:leaf=-0.00873491354
booster[346]:
0:leaf=-0.00355908694
booster[347]:
0:[f0<5.7750001] yes=1,no=2,missing=1
	1:leaf=-0.121760048
	2:leaf=0.134747803
booster[348]:
0:leaf=0.0318853073
booster[349]:
0:leaf=-0.0580840856
booster[350]:
0:leaf=2.25705717e-05
booster[351]:
0:leaf=0.00263529713
booster[352]:
0:leaf=0.00771358702
booster[353]:
0:leaf=0.0336785801
booster[354]:
0:leaf=-0.008135763
booster[355]:
0:leaf=-0.00236899802
booster[356]:
0:leaf=0.00488692708
booster[357]:
0:leaf=0.0326047875
booster[358]:
0:leaf=0.0063575278
booster[359]:
0:[f3<2.04500008] yes=1,no=2,missing=1
	1:leaf=0.0608244203
	2:[f3<2.17500019] yes=5,no=6,missing=5
		5:leaf=-0.268010914
		6:leaf=0.012588867
booster[360]:
0:leaf=-0.00180788245
booster[361]:
0:leaf=-0.0225364119
booster[362]:
0:leaf=0.0339828208
booster[363]:
0:leaf=-0.0252520554
booster[364]:
0:leaf=0.00409029284
booster[365]:
0:[f0<3.65500021] yes=1,no=2,missing=1
	1:leaf=0.201640025
	2:leaf=-0.0240578949
booster[366]:
0:leaf=0.0161668453
booster[367]:
0:[f0<6.60999966] yes=1,no=2,missing=1
	1:[f2<3.53499985] yes=3,no=4,missing=3
		3:[f0<4.84500027] yes=5,no=6,missing=5
			5:[f3<0.965000033] yes=9,no=10,missing=9
				9:leaf=0.20991084
				10:leaf=-0.158351377
			6:leaf=0.0593130141
		4:leaf=0.178531036
	2:leaf=-0.232154816
booster[368]:
0:leaf=-0.0267863683
booster[369]:
0:[f1<0.185000002] yes=1,no=2,missing=1
	1:leaf=-0.0690623522
	2:[f1<0.814999998] yes=5,no=6,missing=5
		5:leaf=0.176914468
		6:[f3<1.39499998] yes=13,no=14,missing=13
			13:leaf=0.222968057
			14:[f1<1.38499999] yes=21,no=22,missing=21
				21:[f2<2.31500006] yes=25,no=26,missing=25
					25:leaf=-0.260167629
					26:leaf=0.142984301
				22:leaf=0.0633373633
booster[370]:
0:leaf=0.0646293536
booster[371]:
0:leaf=0.0256503485
booster[372]:
0:[f2<2.73500013] yes=1,no=2,missing=1
	1:[f1<3.06999993] yes=3,no=4,missing=3
		3:[f2<2.28499985] yes=7,no=8,missing=7
			7:leaf=-0.0661128834
			8:leaf=0.302385807
		4:leaf=-0.0312942006
	2:leaf=-0.0695380047
booster[373]:
0:leaf=-0.0234067459
booster[374]:
0:[f1<0.545000017] yes=1,no=2,missing=1
	1:leaf=0.0618858933
	2:[f1<1.30499995] yes=5,no=6,missing=5
		5:leaf=-0.207150519
		6:[f2<2.00999999] yes=13,no=14,missing=13
			13:leaf=0.175003931
			14:[f0<4.63500023] yes=21,no=22,missing=21
				21:[f0<4.45499992] yes=31,no=32,missing=31
					31:leaf=-0.151849508
					32:leaf=0.207659721
				22:leaf=-0.127134621
booster[375]:
0:leaf=0.0190653708
booster[376]:
0:leaf=-0.0426661707
booster[377]:
0:leaf=0.0236222371
booster[378]:
0:leaf=-0.110871166
booster[379]:
0:leaf=0.00452966802
booster[380]:
0:leaf=-0.039694462
booster[381]:
0:leaf=0.00358981919
booster[382]:
0:leaf=0.0371186994
booster[383]:
0:leaf=-0.00828350801
booster[384]:
0:leaf=-0.0693146214
booster[385]:
0:leaf=0.0430171713
booster[386]:
0:[f3<2.25500011] yes=1,no=2,missing=1
	1:leaf=-0.0938681364
	2:leaf=0.0795406476
booster[387]:
0:leaf=0.00440709991
booster[388]:
0:[f3<1.995] yes=1,no=2,missing=1
	1:leaf=0.126264676
	2:[f2<2.72000003] yes=5,no=6,missing=5
		5:leaf=-0.15431951
		6:leaf=0.0843994841
booster[389]:
0:leaf=-0.0378030762
booster[390]:
0:[f2<2.28499985] yes=1,no=2,missing=1
	1:[f1<1.28499997] yes=3,no=4,missing=3
		3:leaf=-0.132749557
		4:leaf=0.169905528
	2:leaf=0.0991273001
booster[391]:
0:leaf=-0.0422356986
booster[392]:
0:leaf=-0.0317061655
booster[393]:
0:leaf=0.00885143038
booster[394]:
0:[f0<4.31500006] yes=1,no=2,missing=1
	1:leaf=0.105678387
	2:leaf=-0.071016863
booster[395]:
0:leaf=-0.000579350919
booster[396]:
0:leaf=-0.00625099149
booster[397]:
0:leaf=-0.00258493773
booster[398]:
0:leaf=0.0466561764
booster[399]:
0:leaf=-0.0471900851
booster[400]:
0:leaf=-0.0450114273
booster[401]:
0:leaf=0.0258853249
booster[402]:
0:[f3<2.98000002] yes=1,no=2,missing=1
	1:[f2<1.98500001] yes=3,no=4,missing=3
		3:[f1<1.15499997] yes=5,no=6,missing=5
			5:leaf=-0.124729387
			6:leaf=0.201482594
		4:leaf=-0.0505340807
	2:leaf=0.216604143
booster[403]:
0:leaf=0.00467113266
booster[404]:
0:leaf=-0.0140821617
booster[405]:
0:leaf=-0.0322223566
booster[406]:
0:leaf=0.0705742016
booster[407]:
0:leaf=-0.00788936298
booster[408]:
0:leaf=0.00612723036
booster[409]:
0:leaf=-0.0505159535
booster[410]:
0:leaf=-0.0500324778
booster[411]:
0:leaf=0.0221092887
booster[412]:
0:leaf=-0.0158225596
booster[413]:
0:leaf=0.0119280517
booster[414]:
0:leaf=-0.0272878967
booster[415]:
0:leaf=0.00559086166
booster[416]:
0:leaf=0.00979832187
booster[417]:
0:leaf=-0.0352734774
booster[418]:
0:leaf=-0.0257458426
booster[419]:
0:leaf=-0.0959783196
booster[420]:
0:leaf=-0.0258505549
booster[421]:
0:leaf=0.045821771
booster[422]:
0:[f1<3.26499987] yes=1,no=2,missing=1
	1:[f0<4.46500015] yes=3,no=4,missing=3
		3:[f2<3.04999995] yes=7,no=8,missing=7
			7:leaf=-0.167328879
			8:leaf=0.038015902
		4:leaf=0.0557955727
	2:leaf=0.148894995
booster[423]:
0:[f2<2.17500019] yes=1,no=2,missing=1
	1:leaf=-0.160500586
	2:leaf=0.0351823047
booster[424]:
0:leaf=0.0216380134
booster[425]:
0:[f1<1.32500005] yes=1,no=2,missing=1
	1:[f2<2.06500006] yes=3,no=4,missing=3
		3:leaf=-0.142199591
		4:[f3<1.72500002] yes=9,no=10,missing=9
			9:[f0<7.26500034] yes=17,no=18,missing=17
				17:leaf=0.252424508
				18:leaf=-0.164338067
			10:leaf=-0.0822154805
	2:leaf=0.0686978921
booster[426]:
0:leaf=-0.00487734517
booster[427]:
0:leaf=0.0214111861
booster[428]:
0:leaf=-0.0192383546
booster[429]:
0:leaf=0.00918797869
booster[430]:
0:leaf=-0.00988153182
booster[431]:
0:leaf=0.00874078181
booster[432]:
0:leaf=0.012972015
booster[433]:
0:leaf=-0.00110505125
booster[434]:
0:leaf=0.00153832627
booster[435]:
0:leaf=-0.000464914337
booster[436]:
0:leaf=0.0597703643
booster[437]:
0:[f1<2.0250001] yes=1,no=2,missing=1
	1:[f0<6.2249999] yes=3,no=4,missing=3
		3:[f1<-1.68499994] yes=7,no=8,missing=7
			7:leaf=-0.084368825
			8:[f1<0.834999979] yes=13,no=14,missing=13
				13:leaf=0.220244363
				14:[f1<1.03499997] yes=21,no=22,missing=21
					21:leaf=-0.242425248
					22:leaf=0.129122302
		4:leaf=-0.0601030327
	2:leaf=-0.0982861966
booster[438]:
0:leaf=-0.0164491627
booster[439]:
0:leaf=0.0258949455
booster[440]:
0:[f2<2.23500013] yes=1,no=2,missing=1
	1:leaf=-0.0753642172
	2:leaf=0.188194752
booster[441]:
0:leaf=-0.0328975916
booster[442]:
0:leaf=0.019149093
booster[443]:
0:leaf=-0.0690255538
booster[444]:
0:[f1<2.25500011] yes=1,no=2,missing=1
	1:[f2<2.17500019] yes=3,no=4,missing=3
		3:leaf=-0.196066454
		4:[f2<2.99499989] yes=9,no=10,missing=9
			9:leaf=0.137682036
			10:leaf=-0.11483825
	2:leaf=0.130880207
booster[445]:
0:leaf=-0.0032870085
booster[446]:
0:leaf=-0.0252671838
booster[447]:
0:leaf=-0.0318287052
booster[448]:
0:leaf=0.0179283731
booster[449]:
0:leaf=-0.00132606225
booster[450]:
0:leaf=-0.0221048761
booster[451]:
0:[f0<4.59500027] yes=1,no=2,missing=1
	1:leaf=0.173430771
	2:leaf=-0.0245673917
booster[452]:
0:leaf=0.00160778128
booster[453]:
0:leaf=-0.00210409891
booster[454]:
0:leaf=0.0239185486
booster[455]:
0:leaf=-0.0237570349
booster[456]:
0:leaf=0.00765817892
booster[457]:
0:leaf=0.0501435585
booster[458]:
0:leaf=-0.0246526431
booster[459]:
0:leaf=0.00699774595
booster[460]:
0:[f0<7.05500031] yes=1,no=2,missing=1
	1:leaf=-0.0641937926
	2:[f2<1.745] yes=5,no=6,missing=5
		5:leaf=-0.190476462
		6:leaf=0.207145676
booster[461]:
0:leaf=0.0459684692
booster[462]:
0:leaf=0.062486995
booster[463]:
0:leaf=0.00740472274
booster[464]:
0:leaf=-0.0161346924
booster[465]:
0:leaf=-0.0288564879
booster[466]:
0:leaf=0.00263428432
booster[467]:
0:leaf=0.0182292704
booster[468]:
0:leaf=-0.0623853058
booster[469]:
0:leaf=-0.00667006988
booster[470]:
0:leaf=-0.0318803005
booster[471]:
0:leaf=-0.00356383994
booster[472]:
0:leaf=-0.000936347235
booster[473]:
0:[f1<-0.394999981] yes=1,no=2,missing=1
	1:leaf=-0.105378114
	2:[f1<-0.114999995] yes=5,no=6,missing=5
		5:leaf=0.26479882
		6:leaf=-0.0192022212
booster[474]:
0:leaf=0.00422775093
booster[475]:
0:leaf=0.010485949
booster[476]:
0:leaf=0.019453004
booster[477]:
0:leaf=0.0351379402
booster[478]:
0:leaf=0.0122866062
booster[479]:
0:[f1<0.795000017] yes=1,no=2,missing=1
	1:leaf=0.111344151
	2:leaf=-0.0806958154
booster[480]:
0:[f3<2.76499987] yes=1,no=2,missing=1
	1:[f1<-0.114999995] yes=3,no=4,missing=3
		3:leaf=0.0963573605
		4:leaf=-0.134860039
	2:leaf=0.211263373
booster[481]:
0:leaf=-0.0454519019
booster[482]:
0:leaf=0.0504514277
booster[483]:
0:leaf=-0.0826950744
booster[484]:
0:leaf=-0.00542675285
booster[485]:
0:leaf=-0.0143841114
booster[486]:
0:leaf=-0.0241791904
booster[487]:
0:leaf=0.0236187577
booster[488]:
0:leaf=-0.00898151379
booster[489]:
0:leaf=0.0302258804
booster[490]:
0:leaf=0.0677602366
booster[491]:
0:leaf=-0.0431107655
booster[492]:
0:leaf=-0.0016922889
booster[493]:
0:leaf=-0.0287334733
booster[494]:
0:leaf=-0.0135779409
booster[495]:
0:leaf=0.018344
booster[496]:
0:leaf=-0.0289062541
booster[497]:
0:leaf=-0.00731229642
booster[498]:
0:leaf=0.0121707013
booster[499]:
0:leaf=-0.0110820457
booster[500]:
0:leaf=0.0120856585
booster[501]:
0:leaf=-0.0381803624
booster[502]:
0:leaf=0.0206688512
booster[503]:
0:leaf=0.0026620212
booster[504]:
0:leaf=-0.00675314292
booster[505]:
0:leaf=-0.0182997975
booster[506]:
0:[f1<3.06999993] yes=1,no=2,missing=1
	1:leaf=-0.0390695706
	2:leaf=0.133307099
booster[507]:
0:leaf=-0.0154546415
booster[508]:
0:leaf=-0.00349307433
booster[509]:
0:leaf=-0.0120632648
booster[510]:
0:leaf=0.0201038439
booster[511]:
0:leaf=-0.0181987882
booster[512]:
0:leaf=0.043289423
booster[513]:
0:leaf=-0.000679084274
booster[514]:
0:leaf=0.0124383559
booster[515]:
0:leaf=-0.00772840809
booster[516]:
0:leaf=-0.0375343263
booster[517]:
0:[f1<1.005] yes=1,no=2,missing=1
	1:leaf=0.107494973
	2:leaf=-0.149513617
booster[518]:
0:leaf=0.0043607424
booster[519]:
0:[f1<3.14499998] yes=1,no=2,missing=1
	1:[f2<3.55499983] yes=3,no=4,missing=3
		3:[f2<3.20499992] yes=7,no=8,missing=7
			7:[f3<2.29500008] yes=15,no=16,missing=15
				15:leaf=-0.11262086
				16:leaf=0.120379448
			8:leaf=-0.145982847
		4:leaf=0.105403677
	2:leaf=0.136424705
booster[520]:
0:leaf=0.0103317313
booster[521]:
0:leaf=-0.00984332431
booster[522]:
0:leaf=0.0140815182
booster[523]:
0:[f2<2.05499983] yes=1,no=2,missing=1
	1:leaf=-0.135333866
	2:leaf=0.0665357634
booster[524]:
0:leaf=-0.0194925386
booster[525]:
0:leaf=-0.00910481904
booster[526]:
0:leaf=0.0012836447
booster[527]:
0:leaf=0.00648488058
booster[528]:
0:[f0<6.39499998] yes=1,no=2,missing=1
	1:[f3<2.57499981] yes=3,no=4,missing=3
		3:[f0<4.125] yes=7,no=8,missing=7
			7:leaf=-0.129254311
			8:[f1<-1.21000004] yes=13,no=14,missing=13
				13:leaf=-0.0792765319
				14:[f0<4.79500008] yes=19,no=20,missing=19
					19:[f3<0.970000029] yes=21,no=22,missing=21
						21:leaf=0.265292555
						22:[f2<2.9749999] yes=25,no=26,missing=25
							25:leaf=-0.193035439
							26:leaf=0.197406963
					20:leaf=0.16401957
		4:leaf=-0.085626021
	2:leaf=-0.13611041
booster[529]:
0:leaf=0.0548335575
booster[530]:
0:leaf=0.0201311894
booster[531]:
0:leaf=-0.0295693595
booster[532]:
0:leaf=-0.0273177568
booster[533]:
0:leaf=0.00895275362
booster[534]:
0:leaf=-0.041643735
booster[535]:
0:leaf=0.0328215249
booster[536]:
0:leaf=-0.0103212632
booster[537]:
0:[f0<5.85500002] yes=1,no=2,missing=1
	1:leaf=-0.137105882
	2:[f2<2.2750001] yes=5,no=6,missing=5
		5:[f3<1.625] yes=11,no=12,missing=11
			11:leaf=0.146457687
			12:leaf=-0.145800158
		6:leaf=0.152676016
booster[538]:
0:leaf=0.0221263021
booster[539]:
0:leaf=-0.0569234006
booster[540]:
0:leaf=-0.0199465621
booster[541]:
0:leaf=0.0388865471
booster[542]:
0:[f3<1.20000005] yes=1,no=2,missing=1
	1:leaf=-0.196418479
	2:[f2<3.10500002] yes=5,no=6,missing=5
		5:[f2<2.70499992] yes=7,no=8,missing=7
			7:leaf=0.0497713909
			8:leaf=-0.179401994
		6:leaf=0.146776021
booster[543]:
0:leaf=-0.0417403243
booster[544]:
0:leaf=0.0524950884
booster[545]:
0:leaf=-0.0039739986
booster[546]:
0:leaf=0.0338170193
booster[547]:
0:leaf=-0.0182194207
booster[548]:
0:[f1<1.51499999] yes=1,no=2,missing=1
	1:leaf=-0.234262466
	2:leaf=0.0482071787
booster[549]:
0:leaf=0.0221200511
booster[550]:
0:leaf=0.0506181046
booster[551]:
0:leaf=-0.00173140026
booster[552]:
0:leaf=-0.0278115869
booster[553]:
0:leaf=-0.00666076411
booster[554]:
0:leaf=-0.0260818321
booster[555]:
0:[f3<1.20500004] yes=1,no=2,missing=1
	1:leaf=0.182602212
	2:[f2<2.49499989] yes=5,no=6,missing=5
		5:leaf=0.0174652915
		6:[f1<2.42500019] yes=9,no=10,missing=9
			9:[f1<2.125] yes=15,no=16,missing=15
				15:leaf=-0.166976213
				16:leaf=0.122624904
			10:leaf=-0.174667776
booster[556]:
0:leaf=0.0413579158
booster[557]:
0:leaf=0.0545761809
booster[558]:
0:[f3<1.84500003] yes=1,no=2,missing=1
	1:[f1<0.605000019] yes=3,no=4,missing=3
		3:leaf=-0.0678355619
		4:[f2<1.71500003] yes=9,no=10,missing=9
			9:leaf=-0.0749305561
			10:[f1<1.505] yes=17,no=18,missing=17
				17:[f2<2.10500002] yes=23,no=24,missing=23
					23:[f3<1.53499997] yes=27,no=28,missing=27
						27:leaf=0.195350289
						28:leaf=-0.140813217
					24:leaf=0.235422596
				18:leaf=-0.129412264
	2:leaf=-0.113046795
booster[559]:
0:leaf=0.0562089905
booster[560]:
0:leaf=-0
booster[561]:
0:leaf=0.0578849539
booster[562]:
0:[f2<2.16499996] yes=1,no=2,missing=1
	1:leaf=0.130791381
	2:[f1<2.125] yes=5,no=6,missing=5
		5:leaf=-0.183534056
		6:leaf=0.0279188734
booster[563]:
0:[f0<5.53499985] yes=1,no=2,missing=1
	1:[f2<2.60500002] yes=3,no=4,missing=3
		3:[f1<1.54499996] yes=7,no=8,missing=7
			7:[f0<5.17500019] yes=15,no=16,missing=15
				15:leaf=0.215923175
				16:leaf=-0.194994107
			8:leaf=-0.14466393
		4:leaf=0.163113102
	2:leaf=-0.05925145
booster[564]:
0:leaf=-0.0702167377
booster[565]:
0:[f0<5.18999958] yes=1,no=2,missing=1
	1:leaf=-0.177175686
	2:[f3<1.28499997] yes=3,no=4,missing=3
		3:leaf=0.307334334
		4:leaf=0.0108523127
booster[566]:
0:[f1<-0.155000001] yes=1,no=2,missing=1
	1:leaf=-0.178937167
	2:leaf=0.0943555683
booster[567]:
0:leaf=-0.0315553918
booster[568]:
0:leaf=-0.0227615722
booster[569]:
0:leaf=0.035398528
booster[570]:
0:leaf=-0.0197586529
booster[571]:
0:leaf=-0.0119529786
booster[572]:
0:leaf=-0.000504722877
booster[573]:
0:leaf=0.00250204676
booster[574]:
0:leaf=-0.00551510742
booster[575]:
0:leaf=0.0149821965
booster[576]:
0:leaf=-0.0215707533
booster[577]:
0:[f0<5.22999954] yes=1,no=2,missing=1
	1:leaf=-0.155839235
	2:leaf=0.0379509851
booster[578]:
0:leaf=0.0503370427
booster[579]:
0:leaf=-0.00247079576
booster[580]:
0:leaf=0.0474845283
booster[581]:
0:leaf=0.0209695213
booster[582]:
0:[f3<2.05499983] yes=1,no=2,missing=1
	1:leaf=-0.135243982
	2:leaf=0.0838279128
booster[583]:
0:leaf=0.0240631849
booster[584]:
0:leaf=0.0123681165
booster[585]:
0:leaf=0.0252059884
booster[586]:
0:leaf=0.00610997435
booster[587]:
0:leaf=-0.0413976125
booster[588]:
0:leaf=0.0667959154
booster[589]:
0:leaf=-0.0126257418
booster[590]:
0:leaf=0.034911681
booster[591]:
0:leaf=-0.00256113429
booster[592]:
0:leaf=-0.0372346118
booster[593]:
0:leaf=-0.000579909713
booster[594]:
0:leaf=0.0402803645
booster[595]:
0:leaf=-0.0633745119
booster[596]:
0:[f1<3.16000009] yes=1,no=2,missing=1
	1:leaf=0.0601842776
	2:leaf=-0.210138574
booster[597]:
0:leaf=0.0360198393
booster[598]:
0:[f0<5.21500015] yes=1,no=2,missing=1
	1:leaf=-0.0803817511
	2:[f1<0.584999979] yes=5,no=6,missing=5
		5:leaf=-0.0567673482
		6:leaf=0.201500177
booster[599]:
0:leaf=-0.00659070583
booster[600]:
0:leaf=0.0374669954
booster[601]:
0:leaf=-0.0161472708
booster[602]:
0:leaf=0.0633844584
booster[603]:
0:[f2<2.42500019] yes=1,no=2,missing=1
	1:leaf=-0.122007973
	2:[f3<2.14499998] yes=5,no=6,missing=5
		5:leaf=0.159243867
		6:[f0<3.92500019] yes=13,no=14,missing=13
			13:leaf=-0.131876305
			14:[f1<2.09499979] yes=19,no=20,missing=19
				19:leaf=-0.188600883
				20:leaf=0.138684928
booster[604]:
0:leaf=-0.00485012494
booster[605]:
0:leaf=0.0559312925
booster[606]:
0:leaf=0.0672901869
booster[607]:
0:leaf=-0.014493796
booster[608]:
0:leaf=-0.00638145069
booster[609]:
0:leaf=0.00825756695
booster[610]:
0:leaf=0.0111058755
booster[611]:
0:leaf=-0.0328365415
booster[612]:
0:leaf=-0.00827847421
booster[613]:
0:leaf=-0.00522084162
booster[614]:
0:leaf=0.0107183065
booster[615]:
0:leaf=0.0164781492
booster[616]:
0:leaf=0.0159041435
booster[617]:
0:leaf=-0.00889327656
booster[618]:
0:leaf=-0.0184942801
booster[619]:
0:leaf=-0.0400664769
booster[620]:
0:leaf=0.0117836986
booster[621]:
0:leaf=-0.00751547888
booster[622]:
0:leaf=0.0265584607
booster[623]:
0:leaf=0.015044447
booster[624]:
0:leaf=-0.0372430161
booster[625]:
0:leaf=-0.0222143102
booster[626]:
0:leaf=-0.060266111
booster[627]:
0:leaf=-0.00314520742
booster[628]:
0:leaf=-0.00566201517
booster[629]:
0:leaf=0.0382513963
booster[630]:
0:leaf=0.0212507192
booster[631]:
0:leaf=-0.0143906763
booster[632]:
0:leaf=0.00127690355
booster[633]:
0:leaf=-0.00664120214
booster[634]:
0:leaf=-0.0592628457
booster[635]:
0:leaf=-0.0135140838
booster[636]:
0:leaf=-0.0011757419
booster[637]:
0:leaf=0.0326312445
booster[638]:
0:leaf=0.00980253611
booster[639]:
0:leaf=-0.0243668724
booster[640]:
0:leaf=-0.00508050388
booster[641]:
0:leaf=-0.0263414271
booster[642]:
0:leaf=-0.0229388308
booster[643]:
0:leaf=-0.0381286554
booster[644]:
0:leaf=0.0184336212
booster[645]:
0:leaf=0.000224490694
booster[646]:
0:leaf=0.0255040098
booster[647]:
0:leaf=0.00334698288
booster[648]:
0:leaf=-0.00507922517
booster[649]:
0:leaf=0.0468576439
booster[650]:
0:leaf=-0.0458947867
booster[651]:
0:leaf=-0.0103029441
booster[652]:
0:leaf=-0.0109897368
booster[653]:
0:leaf=-0.0489285253
booster[654]:
0:leaf=-0.0138048558
booster[655]:
0:leaf=-0.0112680262
booster[656]:
0:leaf=0.00971891079
booster[657]:
0:leaf=-0.0294119939
booster[658]:
0:leaf=-0.0332608819
booster[659]:
0:[f0<4.92500019] yes=1,no=2,missing=1
	1:[f3<2.15500021] yes=3,no=4,missing=3
		3:leaf=0.196413949
		4:[f0<3.4000001] yes=7,no=8,missing=7
			7:leaf=-0.202181965
			8:leaf=0.118503653
	2:leaf=-0.160027519
booster[660]:
0:leaf=-0.0148509508
booster[661]:
0:leaf=0.0343711637
booster[662]:
0:leaf=-0.0299753323
booster[663]:
0:leaf=-0.00500216987
booster[664]:
0:leaf=0.0588711612
booster[665]:
0:leaf=-0.132673427
booster[666]:
0:[f0<3.08500004] yes=1,no=2,missing=1
	1:leaf=0.124164872
	2:[f3<2.46500015] yes=5,no=6,missing=5
		5:[f3<2.31500006] yes=7,no=8,missing=7
			7:leaf=-0.140982062
			8:leaf=0.155258507
		6:leaf=-0.130433589
booster[667]:
0:leaf=0.049318552
booster[668]:
0:[f2<2.67500019] yes=1,no=2,missing=1
	1:leaf=0.0890433565
	2:[f0<5.54500008] yes=5,no=6,missing=5
		5:leaf=0.0840441585
		6:leaf=-0.20596388
booster[669]:
0:leaf=0.00971775129
booster[670]:
0:leaf=0.00513960049
booster[671]:
0:leaf=0.00159112655
booster[672]:
0:leaf=-9.92651912e-05
booster[673]:
0:leaf=-0.042024143
booster[674]:
0:leaf=0.0289656613
booster[675]:
0:leaf=-0.0535342656
booster[676]:
0:leaf=-0.0214693043
booster[677]:
0:leaf=-0.0174334534
booster[678]:
0:leaf=-0.0124898115
booster[679]:
0:[f0<2.69500017] yes=1,no=2,missing=1
	1:leaf=0.176816896
	2:leaf=-0.172584146
booster[680]:
0:leaf=0.00202400424
booster[681]:
0:[f1<3.06999993] yes=1,no=2,missing=1
	1:[f2<3.00500011] yes=3,no=4,missing=3
		3:leaf=-0.16290462
		4:leaf=0.0278229099
	2:leaf=0.075424552
booster[682]:
0:leaf=0.0775507763
booster[683]:
0:leaf=-0.0633010939
booster[684]:
0:leaf=0.00101041247
booster[685]:
0:leaf=-0.00364345638
booster[686]:
0:leaf=-0.0035197027
booster[687]:
0:leaf=-0.0272410177
booster[688]:
0:leaf=-0.0335539579
booster[689]:
0:leaf=-0.0471748002
booster[690]:
0:leaf=0.0600203052
booster[691]:
0:leaf=-0.000663013605
booster[692]:
0:leaf=0.0186739471
booster[693]:
0:leaf=0.00942567177
booster[694]:
0:leaf=0.00956984051
booster[695]:
0:leaf=-0.0213828757
booster[696]:
0:leaf=0.00144774432
booster[697]:
0:leaf=0.0155432783
booster[698]:
0:leaf=0.0137827368
booster[699]:
0:leaf=-0.0145303132
booster[700]:
0:leaf=-0.0211000796
booster[701]:
0:leaf=0.020705536
booster[702]:
0:leaf=-0.0175564401
booster[703]:
0:leaf=-0.0706778094
booster[704]:
0:leaf=0.0510775074
booster[705]:
0:leaf=0.0413007289
booster[706]:
0:leaf=-0.0542608872
booster[707]:
0:leaf=0.00398873305
booster[708]:
0:leaf=-0.0294189733
booster[709]:
0:leaf=0.00456424709
booster[710]:
0:leaf=-0.05332499
booster[711]:
0:leaf=-0.0461092331
booster[712]:
0:leaf=-0.0303536206
booster[713]:
0:leaf=0.0164064653
booster[714]:
0:leaf=-0.0376944616
booster[715]:
0:leaf=-0.00414660107
booster[716]:
0:leaf=0.0307095628
booster[717]:
0:leaf=0.0114948144
booster[718]:
0:leaf=-0.00364069757
booster[719]:
0:leaf=-0.0462219417
booster[720]:
0:leaf=0.0218475964
booster[721]:
0:leaf=0.035032846
booster[722]:
0:leaf=0.0185423829
booster[723]:
0:leaf=0.00496376818
booster[724]:
0:leaf=0.0485639796
booster[725]:
0:leaf=-0.0444366075
booster[726]:
0:leaf=0.0497555584
booster[727]:
0:leaf=0.0374939851
booster[728]:
0:leaf=0.0376286507
booster[729]:
0:leaf=-0.0312578268
booster[730]:
0:leaf=-0.0101357391
booster[731]:
0:leaf=-0.0310313124
booster[732]:
0:leaf=0.0249777436
booster[733]:
0:leaf=-0.0221102368
booster[734]:
0:leaf=0.018824989
booster[735]:
0:leaf=0.0346687622
booster[736]:
0:leaf=0.0461485349
booster[737]:
0:[f3<0.975000024] yes=1,no=2,missing=1
	1:leaf=-0.207252517
	2:[f0<4.0250001] yes=3,no=4,missing=3
		3:[f3<2.67500019] yes=5,no=6,missing=5
			5:[f0<2.82499981] yes=9,no=10,missing=9
				9:leaf=0.132654145
				10:[f3<2.05499983] yes=19,no=20,missing=19
					19:leaf=0.0957290009
					20:leaf=-0.175174966
			6:leaf=0.108786769
		4:leaf=0.0806806982
booster[738]:
0:leaf=-0.0034646953
booster[739]:
0:leaf=0.0251666177
booster[740]:
0:leaf=-0.0179338381
booster[741]:
0:leaf=-0.00590370875
booster[742]:
0:leaf=-0.014074442
booster[743]:
0:leaf=-0.0210078005
booster[744]:
0:leaf=-0.0216167029
booster[745]:
0:leaf=-0.0146404458
booster[746]:
0:leaf=0.0289469268
booster[747]:
0:leaf=0.0267415885
booster[748]:
0:leaf=0.00988140423
